tree
version=v4
num_class=1
num_tree_per_iteration=1
label_index=0
max_feature_idx=55
objective=regression
feature_names=PULocationID DOLocationID passenger_count pickup_hour pickup_day pickup_month pickup_weekday pickup_dayofyear pickup_weekofyear is_weekend is_rush_hour is_late_night is_business_hours pickup_is_airport dropoff_is_airport is_airport_trip pickup_is_manhattan dropoff_is_manhattan same_location estimated_distance temperature feels_like humidity pressure wind_speed clouds precipitation snow weather_severity is_raining is_snowing is_heavy_rain is_heavy_snow is_extreme_weather is_poor_visibility is_holiday is_major_holiday is_holiday_week weather_airport_interaction weather_rushhour_interaction rushhour_airport_interaction latenight_manhattan_interaction distance_hour_interaction distance_rushhour_interaction holiday_airport_interaction holiday_manhattan_interaction rain_distance_interaction snow_distance_interaction hour_sin hour_cos weekday_sin weekday_cos month_sin month_cos dayofyear_sin dayofyear_cos
feature_infos=[1:265] [1:265] [1:6] [0:23] [1:31] [1:12] [0:6] [1:365] [1:52] [0:1] [0:1] [0:1] [0:1] [0:1] [0:1] [0:1] [0:1] [0:1] [0:1] [0.10000000000000001:36.390000000000001] [1.1000000000000001:98.099999999999994] [1.1000000000000001:98.099999999999994] [21:100] [29.063426000000003:30.743682999999997] [0.29999999999999999:33.600000000000001] [0:100] [0:0.90900000000000003] [0:0.88200000000000001] [0:8] [0:1] [0:1] [0:1] none [0:1] none [0:1] [0:1] [0:1] [0:7] [0:7] [0:1] [0:1] [0:577.71000000000004] [0:35.359999999999999] [0:1] [0:1] [0:29.399999999999999] [0:20.199999999999999] [-1:1] [-1:1] [-0.97492791218182362:0.97492791218182362] [-0.90096886790241903:1] [-1:1] [-1:1] [-0.99999073973619013:0.99999073973619013] [-0.99996295911626554:1]
tree_sizes=6341 6465 6398 6452 6379 6343 6531 6311 6321 6395 6378 6257 6257 6388 6336 6318 6408 6302 6303 6291 6317 6301 6349 6330 6361 6321 6353 6343 6356 6270 6340 6315 6372 6331 6425 6350 6368 6348 6383 6344 6312 6373 6375 6406 6357 6409 6384 6375 6262 6351 6375 6348 6494 6349 6346 6365 6384 6393 6354 6353 6414 6407 6386 6329 6458 6360 6367 6397 6395 6372 6275 6196 6373 6276 6366 6394 6412 6411 6502 6353 6443 6363 6298 6310 6336 6466 6443 6310 6486 6360 6265 6278 6419 6487 6290 6409 6346 6301 6180 6253 6539 6312 6324 6470 6318 6323 6238 6333 6529 6344 6461 6433 6218 6375 6485 6420 6504 6280 6337 6277 6269 6522 6203 6435 6258 6589 6356 6454 6164 6246 6475 6170 6490 6261 6188 6309 6132 6233 6288 6351 6477 6239 6294 6244 6493 6193 6484 6424 6461 6032 6239 6378 5974 6144 6313 6273 6366 6602 5986 6253 6311 6295 6617 5994 6147 6139 6027 6367 6294 6499 6074 6493 6492 5986 6420 6258 6100 6345 6220 5976 6549 6110 6412 6070 6183 6299 6326 6117 6401 6216 6281 6067 6309 6058 6137 6102 6457 6064 6185 6351 6223 6296 6348 6400 6155 6463 6256 6065 6266 6294 6111 6248 6346 6314 6381 6218 6246 6186 6219 6108 5851 6116 6385 6342 6072 5936 6578 6026 6050 6456 6128 6239 6413 6067 6073 6117 6450 6178 6354 6309 6207 6331 6191 6048 6225 6253 6146 6167 5978 6374 6042 6211 5812 6246 6177 6255 6010 5808 6477 6416 6201 5743 6211 6238 5928 6226 6137 6128 6212 6346 5703 6536 6029 6310 6009 6486 6227 5827 6307 5869 6246 6238 6146 6261 6153 6400 6025 6054 6270 6360 5811 6199 6568 5979 6012 6197 5965 6122 6206 5850 6490 6310 5757 6227 6099 6510 6033 6094 6120 6244 5957 5944 6444 6125 6282 6209 5767 6091 6020 5925 6279 6183 5828 5987 6028 6322 6350 6205 6221 5760 5823 5856 6491 6144 6373 6281 6039 6205 6193 6181 5862 5751 5749 5960 5751 6061 6284 6202 5721 6189 6260 6008 6322 6345 6216 6420 6395 6232 5715 5975 5725 6320 6293 6189 6051 5942 5916 5786 5844 6265 5908 6063 5893 6252 6185 6290 5811 6268 6222 6075 5877 5903 6110 6081 6068 6114 5782 6092 6174 6213 6134 6134 6085 5959 6122 6191 6241 6341 5975 6358 6521 6010 6263 6099 6324 6058 6560 6107 6418 6059 5952 5757 5958 5834 6060 5761 5730 6080 5805 5954 6420 5860 5861 6135 6291 5734 5701 5755 5746 6225 6100 6384 5913 6384 5910 5782 5862 5945 5946 5773 5792 5701 5761 5780 6013 6513 6303 6193 6484 6199 6347 5749 6008 5759 5967 6018 5984 6062 6166 5777 5709 5738 6108 5657 6293 5755 5689 5795 6085 6193 5706 5964 5837 6161 5990 6431 6446 6088 6086 6046 5864 5860 5887 5984 5922 6162 5923 6078 6411 6169 5760 5911 5755 6051 5755 5953 5810 5918 5777 5977

Tree=0
num_leaves=63
num_cat=0
split_feature=42 42 42 3 3 1 3 13 42 3 1 3 3 49 42 0 42 3 42 42 42 7 42 42 1 3 42 42 42 42 48 1 3 3 1 3 42 0 46 42 3 42 42 3 1 42 1 1 1 3 3 3 3 7 42 42 1 13 0 48 42 42
split_gain=2.10135e+09 2.36102e+08 2.19209e+08 1.22488e+08 9.43934e+07 5.31687e+07 4.23011e+07 5.72633e+07 4.29034e+07 2.86895e+07 2.48381e+07 2.3799e+07 2.29087e+07 2.11423e+07 1.80177e+07 1.77735e+07 1.60926e+07 2.09263e+07 1.20567e+07 1.09266e+07 1.08226e+07 1.03931e+07 1.03577e+07 9.60898e+06 9.29674e+06 9.15426e+06 2.69883e+07 6.46004e+06 6.25223e+06 6.23072e+06 6.23318e+06 4.99313e+06 4.80069e+06 4.32171e+06 4.27932e+06 4.06886e+06 3.92144e+06 3.59728e+06 3.48424e+06 3.14901e+06 2.76607e+06 4.95274e+06 2.73613e+06 4.02209e+06 2.54629e+06 2.24037e+06 2.1796e+06 2.16709e+06 1.94899e+06 1.94656e+06 1.91388e+06 1.86729e+06 1.81387e+06 1.79676e+06 1.65207e+06 1.63688e+06 1.63428e+06 1.6221e+06 1.70675e+06 1.53445e+06 1.49495e+06 1.45771e+06
threshold=100.74500000000002 213.38500000000002 40.010000000000012 12.500000000000002 11.500000000000002 264.50000000000006 4.5000000000000009 1.0000000180025095e-35 19.105000000000004 17.500000000000004 2.0000000000000004 6.5000000000000009 14.500000000000002 -0.12940952255126037 8.4050000000000029 137.50000000000003 141.21000000000001 8.5000000000000018 66.00500000000001 155.78000000000003 61.780000000000008 352.50000000000006 63.845000000000006 150.41000000000003 264.50000000000006 18.500000000000004 312.98500000000007 67.205000000000027 28.610000000000003 11.630000000000001 -0.25881904510252113 264.50000000000006 3.5000000000000004 18.500000000000004 2.0000000000000004 1.5000000000000002 18.005000000000006 160.50000000000003 4.6850000000000014 28.365000000000006 1.5000000000000002 4.1650000000000009 282.58000000000004 13.500000000000002 2.0000000000000004 124.77000000000002 264.50000000000006 226.50000000000003 195.50000000000003 10.500000000000002 10.500000000000002 1.0000000180025095e-35 9.5000000000000018 352.50000000000006 256.56000000000006 187.21000000000006 2.0000000000000004 1.0000000180025095e-35 160.50000000000003 -0.91597561503675329 79.910000000000011 30.370000000000005
decision_type=2 2 2 2 2 2 2 2 2 2 2 2 2 2 2 2 2 2 2 2 2 2 2 2 2 2 2 2 2 2 2 2 2 2 2 2 2 2 2 2 2 2 2 2 2 2 2 2 2 2 2 2 2 2 2 2 2 2 2 2 2 2
left_child=2 3 6 16 11 10 7 14 29 19 57 27 28 20 31 47 17 46 -13 45 -6 25 59 -11 34 -12 54 32 50 -8 -31 38 -4 39 -18 -16 -37 -17 40 -14 41 51 43 -7 -21 -5 56 48 -9 -30 -10 -1 -20 -36 -27 -46 -2 -3 -59 -15 -22 -35
right_child=1 5 4 9 13 42 8 15 12 23 21 18 33 22 35 37 24 -19 52 44 60 -23 -24 -25 -26 26 -28 -29 49 30 -32 -33 -34 61 53 36 -38 -39 -40 -41 -42 -43 -44 -45 55 -47 -48 -49 -50 -51 -52 -53 -54 -55 -56 -57 -58 58 -60 -61 -62 -63
leaf_value=14.381004145504781 17.239901408889466 17.556204234766433 16.679584065866425 15.165535061494472 14.592686901360356 18.947244940008886 14.083952103145505 15.934834143096433 14.43960558023311 14.859980619648136 16.389917409057261 14.852623633188131 14.230094503815776 14.438624582404103 15.582982894660608 15.202451673768225 17.398550687165091 15.568387981339679 15.448998338108197 17.085779942276915 14.805370686075436 17.124869372059393 14.58296535387594 15.209869229671099 18.434176379530591 15.451942892301483 16.379093485886482 16.303720366521102 14.637915101081386 14.115826685613529 14.240511906004366 16.936779410108251 15.366856287151201 14.146954522202577 16.335350761790892 14.616412432550339 15.108996269826106 14.400904482599831 14.9653551312392 14.348019216691092 14.191538303242954 14.772133483442108 18.789628969349412 16.794761000497605 15.661692663011744 15.421170721729068 18.202610503426243 16.456332466308659 15.147125871788196 14.481226362054764 14.327879972374223 14.225141177424545 15.171585185772441 17.208114541457196 15.777880320442607 15.987303044645556 16.390418048364467 19.696075319987056 17.651103453878545 14.335701787702909 14.977445092655435 14.233150809717337
leaf_weight=542292 6038 27794 7948 148897 997616 3861 3333327 53162 598180 470033 504587 323104 1227983 577060 16478 27290 10654 178575 128664 3691 326553 34720 961225 336855 5949 103846 279096 46367 288824 2061687 1950785 1831 56286 1147578 167248 134561 57742 28738 20824 1050331 339768 67112 20636 4957 128641 201962 1793 16931 9214 631804 1067099 297625 108713 6113 62145 55146 91001 1944 2149 972299 205752 856641
leaf_count=542292 6038 27794 7948 148897 997616 3861 3333327 53162 598180 470033 504587 323104 1227983 577060 16478 27290 10654 178575 128664 3691 326553 34720 961225 336855 5949 103846 279096 46367 288824 2061687 1950785 1831 56286 1147578 167248 134561 57742 28738 20824 1050331 339768 67112 20636 4957 128641 201962 1793 16931 9214 631804 1067099 297625 108713 6113 62145 55146 91001 1944 2149 972299 205752 856641
internal_value=14.5119 15.7821 14.3351 15.4369 14.6345 16.3804 14.246 14.4886 14.2185 15.1947 16.3197 15.1837 14.3083 14.5433 14.3985 15.473 16.1342 15.8915 15.0514 15.4773 14.6898 16.2752 14.454 15.0061 16.4888 16.2441 16.0788 15.854 14.4258 14.1345 14.1764 14.3277 15.5293 14.2373 16.4259 14.8289 14.7643 14.7913 14.3239 14.2845 14.3132 14.3588 18.4746 17.7373 15.7855 15.3127 16.4752 15.9547 15.8185 14.5304 14.368 14.3258 15.322 16.3661 15.574 15.7594 16.4433 17.6931 18.6225 14.374 14.8719 14.1838
internal_weight=2.33977e+07 2.85833e+06 2.05394e+07 1.8126e+06 4.71159e+06 1.04574e+06 1.58278e+07 1.61357e+06 1.42142e+07 1.34522e+06 1.01628e+06 671082 6.86844e+06 4.0405e+06 1.47823e+06 135335 467371 277407 560481 538337 1.52992e+06 984394 2.51058e+06 806888 189964 949674 445087 110601 2.58591e+06 7.3458e+06 4.01247e+06 1.26945e+06 64234 4.28253e+06 184015 208781 192303 56028 1.26762e+06 2.27831e+06 1.2468e+06 907029 29454 8818 187478 350859 98832 79307 62376 920628 1.66528e+06 839917 237377 173361 165991 183787 97039 31887 4093 1.54936e+06 532305 2.00422e+06
internal_count=23397725 2858331 20539394 1812596 4711587 1045735 15827807 1613568 14214239 1345225 1016281 671082 6868440 4040505 1478233 135335 467371 277407 560481 538337 1529921 984394 2510584 806888 189964 949674 445087 110601 2585907 7345799 4012472 1269452 64234 4282533 184015 208781 192303 56028 1267621 2278314 1246797 907029 29454 8818 187478 350859 98832 79307 62376 920628 1665279 839917 237377 173361 165991 183787 97039 31887 4093 1549359 532305 2004219
is_linear=0
shrinkage=1


Tree=1
num_leaves=63
num_cat=0
split_feature=42 42 42 3 3 1 3 13 42 3 3 1 3 49 42 0 42 3 42 42 42 42 42 3 42 1 42 3 42 43 1 55 1 3 42 42 43 0 46 54 3 48 3 42 1 42 3 48 1 3 1 43 42 42 43 3 42 43 1 1 3 3
split_gain=1.89705e+09 2.2386e+08 1.8787e+08 1.13804e+08 8.01384e+07 4.79848e+07 3.81768e+07 5.16802e+07 3.874e+07 2.68477e+07 2.2581e+07 2.24165e+07 2.04906e+07 1.81343e+07 1.6261e+07 1.60406e+07 1.5992e+07 2.03424e+07 1.06756e+07 1.05681e+07 9.54129e+06 9.43867e+06 8.77592e+06 2.02266e+07 8.61754e+06 8.39034e+06 6.75772e+06 6.58099e+06 4.98971e+06 4.71223e+06 4.50633e+06 4.01433e+06 3.86209e+06 3.67215e+06 3.61676e+06 3.55609e+06 3.44109e+06 3.24655e+06 3.15048e+06 2.94614e+06 2.69735e+06 2.53801e+06 2.50855e+06 4.49805e+06 2.44209e+06 2.405e+06 6.29363e+06 2.21551e+06 1.96306e+06 1.9585e+06 1.9558e+06 1.93584e+06 1.86838e+06 1.85572e+06 1.84136e+06 1.82138e+06 1.77025e+06 1.76602e+06 1.75897e+06 1.60392e+06 1.57052e+06 1.51642e+06
threshold=98.095000000000013 213.38500000000002 40.010000000000012 12.500000000000002 10.500000000000002 264.50000000000006 4.5000000000000009 1.0000000180025095e-35 20.245000000000005 17.500000000000004 17.500000000000004 2.0000000000000004 15.500000000000002 0.25881904510252057 8.4050000000000029 137.50000000000003 141.21000000000001 8.5000000000000018 150.41000000000003 59.790000000000006 145.61000000000004 64.810000000000016 256.56000000000006 17.500000000000004 62.805000000000014 264.50000000000006 11.975000000000003 13.500000000000002 28.610000000000003 1.5950000000000004 264.50000000000006 0.97690230611205509 2.0000000000000004 1.5000000000000002 59.790000000000006 18.910000000000007 20.190000000000001 160.50000000000003 4.8150000000000004 0.012910176522261693 3.5000000000000004 0.25881904510252091 1.5000000000000002 3.8250000000000006 2.0000000000000004 382.73000000000008 15.500000000000002 0.25881904510252091 264.50000000000006 1.0000000180025095e-35 226.50000000000003 9.2050000000000018 180.15500000000003 121.20500000000001 2.5550000000000002 7.5000000000000009 76.710000000000022 3.8550000000000004 195.50000000000003 2.0000000000000004 14.500000000000002 18.500000000000004
decision_type=2 2 2 2 2 2 2 2 2 2 2 2 2 2 2 2 2 2 2 2 2 2 2 2 2 2 2 2 2 2 2 2 2 2 2 2 2 2 2 2 2 2 2 2 2 2 2 2 2 2 2 2 2 2 2 2 2 2 2 2 2 2
left_child=2 3 6 16 13 11 7 14 26 18 19 -3 28 21 30 50 17 48 53 60 -11 -4 23 -13 54 32 -8 -28 47 -14 38 61 -18 -16 40 -35 45 -17 42 -33 -15 -30 43 49 -20 46 -7 -10 59 -1 58 -22 -46 -5 -12 -23 -21 -26 -9 -2 -6 -24
right_child=1 5 4 9 10 36 8 15 12 20 24 22 29 34 33 37 25 -19 44 56 51 55 31 -25 57 -27 27 -29 41 -31 -32 39 -34 35 -36 -37 -38 -39 -40 -41 -42 -43 -44 -45 52 -47 -48 -49 -50 -51 -52 -53 -54 -55 -56 -57 -58 -59 -60 -61 -62 -63
leaf_value=-0.12405067480586629 2.585587514712925 3.0220549484953025 0.3813742595337215 0.59082381992468447 0.15131244850114769 4.1247662902415216 -0.40432715149265369 1.3517162135366456 -0.18902454529868259 0.30970845751367299 -0.16334486411423232 1.7813308532698984 -0.30747359799800744 1.9757243363812671 1.0174577127222468 0.65595286222159777 2.742248093781229 0.98930082255113949 2.4473581520346528 0.27070107909987906 0.59418277686918231 1.1108772774401539 1.8241070088136166 0.94511205369815932 0.02416399328725535 3.7260946327559203 -0.24630718493408288 -0.36904702967920971 -0.061023009570319267 -0.1847563959152638 2.3035707022918057 2.6067017785408275 1.7614448520092474 0.10908569793174722 1.855520013356637 0.59360019122063457 4.837439589813914 -0.10551711057820748 0.45059691544612157 1.7213135165918971 0.85316193643437277 0.094704826331103956 -0.30441495322032425 0.21268155847094283 1.0452773841883622 4.2499472046814715 2.1564664543081999 -0.071867680134386158 3.454924674963558 -0.28588446319749322 1.8471400173267847 0.89124532266277245 1.3534472078931421 0.82839927430040261 -0.029286850365644324 0.75899617823613419 0.44113214472811069 0.1954265048066266 0.603393571029889 1.7711043148937868 0.026337127449053317 1.6703361968042729
leaf_weight=543111 6445 31887 244646 143408 443079 8238 3513212 53162 973513 478571 1175696 183029 2353630 6880 16478 27290 10654 195070 3709 370745 301019 48769 309272 119547 781170 5949 2063978 2319271 718101 1171706 1831 24223 173361 140452 32895 51851 5961 28738 19585 15351 24084 411604 339768 80076 140188 7244 8011 689224 1873 285081 16931 67060 75770 192573 327502 149534 258663 186454 9214 97379 581037 332972
leaf_count=543111 6445 31887 244646 143408 443079 8238 3513212 53162 973513 478571 1175696 183029 2353630 6880 16478 27290 10654 195070 3709 370745 301019 48769 309272 119547 781170 5949 2063978 2319271 718101 1171706 1831 24223 173361 140452 32895 51851 5961 28738 19585 15351 24084 411604 339768 80076 140188 7244 8011 689224 1873 285081 16931 67060 75770 192573 327502 149534 258663 186454 9214 97379 581037 332972
internal_value=-7.41424e-05 1.18783 -0.170707 0.863485 0.109399 1.77497 -0.252665 -0.0221879 -0.278828 0.634148 0.0364884 1.71731 -0.186545 0.702736 -0.107807 0.913012 1.51883 1.29199 0.904206 0.179503 0.456912 0.589174 1.67505 1.45094 -0.0592196 1.87798 -0.352662 -0.311251 -0.0853699 -0.266686 -0.17506 1.7745 1.81823 0.301109 1.49044 0.239726 3.76448 0.265378 -0.17864 2.26326 1.10259 -0.00428412 -0.188515 -0.145159 1.17525 3.49222 3.15438 -0.140462 1.85061 -0.179757 1.37054 0.648305 1.1534 0.726994 -0.134138 0.845535 0.340742 0.057165 1.24118 1.82167 0.0804071 1.74438
internal_weight=2.33977e+07 2.93876e+06 2.0459e+07 1.89303e+06 4.63115e+06 1.04574e+06 1.58278e+07 1.61357e+06 1.42142e+07 1.4023e+06 4.12435e+06 1.01628e+06 6.31778e+06 506808 1.47823e+06 135335 490731 300767 555648 1.65352e+06 846650 442949 984394 302576 2.47082e+06 189964 7.89646e+06 4.38325e+06 2.79244e+06 3.52534e+06 1.26945e+06 681818 184015 208781 63859 192303 29454 56028 1.26762e+06 39574 30964 1.1297e+06 1.24804e+06 908268 219667 23493 16249 1.66274e+06 105697 828192 79307 368079 215958 335981 1.5032e+06 198303 629408 967624 62376 103824 1.02412e+06 642244
internal_count=23397725 2938764 20458961 1893029 4631154 1045735 15827807 1613568 14214239 1402298 4124346 1016281 6317778 506808 1478233 135335 490731 300767 555648 1653524 846650 442949 984394 302576 2470822 189964 7896461 4383249 2792442 3525336 1269452 681818 184015 208781 63859 192303 29454 56028 1267621 39574 30964 1129705 1248036 908268 219667 23493 16249 1662737 105697 828192 79307 368079 215958 335981 1503198 198303 629408 967624 62376 103824 1024116 642244
is_linear=0
shrinkage=0.05


Tree=2
num_leaves=63
num_cat=0
split_feature=19 19 19 1 19 19 1 19 7 19 19 19 19 19 19 19 7 19 7 12 12 1 12 19 7 1 19 12 1 7 13 1 19 12 15 19 7 1 7 19 7 19 7 7 7 7 7 19 19 7 1 13 12 14 1 19 12 7 43 49 1 19
split_gain=2.09565e+09 2.81914e+08 2.41114e+08 5.50565e+07 4.65039e+07 4.6226e+07 2.24918e+07 1.85191e+07 1.18659e+07 1.07425e+07 8.8998e+06 7.30088e+06 6.36528e+06 6.30934e+06 6.10358e+06 4.04293e+06 2.72834e+06 2.45356e+06 2.23466e+06 1.77977e+06 1.75099e+06 1.74197e+06 1.57811e+06 1.56159e+06 1.43391e+06 1.38447e+06 1.374e+06 1.36605e+06 1.34246e+06 1.25848e+06 1.25543e+06 1.16218e+06 1.07354e+06 980283 826747 817971 788702 717260 710416 674168 639582 619990 591414 584738 580284 547271 543200 541282 535879 524033 523101 514490 512053 503595 531054 467180 466320 454833 454636 448842 435936 433702
threshold=8.1050000000000022 2.6950000000000007 13.145000000000001 264.50000000000006 4.6850000000000014 1.4650000000000001 2.0000000000000004 20.195000000000004 352.50000000000006 10.305000000000001 15.765000000000002 0.96500000000000008 3.4950000000000006 6.1450000000000005 1.9950000000000003 20.195000000000004 352.50000000000006 20.195000000000004 352.50000000000006 1.0000000180025095e-35 1.0000000180025095e-35 264.50000000000006 1.0000000180025095e-35 11.915000000000001 352.50000000000006 2.0000000000000004 9.1150000000000002 1.0000000180025095e-35 264.50000000000006 352.50000000000006 1.0000000180025095e-35 264.50000000000006 0.69500000000000006 1.0000000180025095e-35 1.0000000180025095e-35 7.0550000000000006 352.50000000000006 2.0000000000000004 352.50000000000006 5.4050000000000011 352.50000000000006 4.0650000000000004 352.50000000000006 352.50000000000006 352.50000000000006 352.50000000000006 352.50000000000006 2.2950000000000004 15.765000000000002 352.50000000000006 264.50000000000006 1.0000000180025095e-35 1.0000000180025095e-35 1.0000000180025095e-35 137.50000000000003 1.1950000000000001 1.0000000180025095e-35 352.50000000000006 2.9750000000000005 1.0000000180025095e-35 264.50000000000006 17.905000000000005
decision_type=2 2 2 2 2 2 2 2 2 2 2 2 2 2 2 2 2 2 2 2 2 2 2 2 2 2 2 2 2 2 2 2 2 2 2 2 2 2 2 2 2 2 2 2 2 2 2 2 2 2 2 2 2 2 2 2 2 2 2 2 2 2
left_child=1 5 9 6 12 11 15 61 10 18 53 25 20 28 27 36 23 -12 26 43 42 22 38 56 35 -1 -2 57 29 39 -17 32 -27 55 -19 -15 -4 -25 41 59 -21 -14 50 47 -22 -24 -9 -16 -10 -29 58 -30 -28 -8 -55 -13 -11 -7 -3 -6 -39 -5
right_child=2 4 3 7 13 14 8 46 48 16 17 33 21 24 19 30 -18 34 -20 40 44 -23 45 37 -26 31 52 49 51 -31 -32 -33 -34 -35 -36 -37 -38 60 -40 -41 -42 -43 -44 -45 -46 -47 -48 -49 -50 -51 -52 -53 -54 54 -56 -57 -58 -59 -60 -61 -62 -63
leaf_value=3.5912471079969808 0.63030381936358326 -0.068482889737956784 2.4883305747420974 2.1194946703318447 0.26945695414631371 -0.25211513867302576 1.3155313538215507 4.4189668289906852 2.0811002601665143 0.89173017899576734 1.689721492735512 -0.35203821853342993 0.044586100633150397 0.40627708715469241 -0.18861371267437832 3.2509645357006676 1.632551059979096 2.2777506986333105 1.2087430118177327 -0.086542499979351026 0.040546236248122397 1.5880075917983953 0.18127884961107291 2.1364425526942248 0.86375189875127423 -0.43054039332742128 0.7224280788898122 -0.19132722262879645 1.7219385898448831 0.60220200001801372 4.4776553007530593 2.240628930978608 -0.37970655990053614 -0.28075025078338373 1.8607950337873032 0.51432765532883928 3.5711310364017956 1.10527365539889 0.33763431006325062 0.31273251898835536 0.11715128998512361 0.12073424740362959 0.16468306063721469 0.017927514542596765 0.28871918053967471 0.47155683999887543 5.6931271102293586 -0.135889691058388 2.579056155101302 -0.024440278756813868 1.5386789747094998 0.40241289917286083 0.83913320016513093 1.7168305604423648 1.259986674609898 -0.30951186546278464 1.0051414027122367 -0.10390898587033531 0.0025859474592065689 0.17984588881057076 1.7856517364650544 2.6949274828435756
leaf_weight=217 333248 1064050 46038 11463 296808 2165424 157382 23944 6317 224677 818637 1187167 630714 370526 954152 6158 17159 12738 22707 1112508 677250 2011 462561 1743 22397 1847197 239552 1353725 2205 28055 3156 416 2372711 1779203 178767 332195 1746 146339 26755 392040 39920 463920 31987 46377 24403 16828 868 993843 37459 48732 516 1111 154689 17228 10088 1416289 151950 53036 285388 264055 2393 4587
leaf_count=217 333248 1064050 46038 11463 296808 2165424 157382 23944 6317 224677 818637 1187167 630714 370526 954152 6158 17159 12738 22707 1112508 677250 2011 462561 1743 22397 1847197 239552 1353725 2205 28055 3156 416 2372711 1779203 178767 332195 1746 146339 26755 392040 39920 463920 31987 46377 24403 16828 868 993843 37459 48732 516 1111 154689 17228 10088 1416289 151950 53036 285388 264055 2393 4587
internal_value=-7.04178e-05 -0.168501 1.32935 1.8004 0.142432 -0.277651 1.74341 3.60746 1.69868 0.842976 1.66906 -0.354556 0.0424762 0.357992 -0.179888 2.71367 1.01208 1.72741 0.72029 -0.128953 -0.0151487 0.117387 0.11554 0.991885 0.469908 -0.401492 0.705044 -0.224154 0.275542 0.272147 3.66667 -0.401698 -0.401958 -0.309355 1.88853 0.457356 2.5279 1.12804 0.0830805 0.26243 -0.0794866 0.0768587 -0.0478091 -0.157537 0.0491776 0.191469 4.46356 -0.161715 2.5072 -0.185528 -0.0528441 1.27987 0.76822 1.34993 1.54812 -0.328904 0.937486 -0.248572 -0.0534528 0.227268 1.11622 2.28397
internal_weight=2.33977e+07 2.07667e+07 2.63103e+06 1.33658e+06 5.39578e+06 1.53709e+07 1.29571e+06 40862 1.23862e+06 1.29446e+06 1.19484e+06 8.6032e+06 3.68638e+06 1.70939e+06 6.76772e+06 57098 544261 1.01014e+06 750196 3.1468e+06 2.08359e+06 1.60279e+06 1.60078e+06 527102 725118 4.22054e+06 727489 3.62092e+06 984274 980958 9314 4.22032e+06 4.21991e+06 4.38266e+06 191505 702721 47784 150475 1.12139e+06 952903 1.15243e+06 1.09463e+06 1.38194e+06 1.99437e+06 701653 479389 24812 1.948e+06 43776 1.40246e+06 1.34995e+06 3316 394241 184698 27316 2.60346e+06 376627 2.21846e+06 1.34944e+06 560863 148732 16050
internal_count=23397725 20766692 2631033 1336576 5395775 15370917 1295714 40862 1238616 1294457 1194840 8603200 3686383 1709392 6767717 57098 544261 1010142 750196 3146800 2083594 1602789 1600778 527102 725118 4220541 727489 3620917 984274 980958 9314 4220324 4219908 4382659 191505 702721 47784 150475 1121389 952903 1152428 1094634 1381941 1994372 701653 479389 24812 1947995 43776 1402457 1349954 3316 394241 184698 27316 2603456 376627 2218460 1349438 560863 148732 16050
is_linear=0
shrinkage=0.05


Tree=3
num_leaves=63
num_cat=0
split_feature=19 19 19 19 19 19 17 19 7 19 19 19 19 0 19 15 13 17 7 7 19 7 19 49 13 0 7 49 0 7 17 7 49 7 19 49 7 7 7 0 7 19 19 0 19 19 15 19 17 19 49 19 7 19 49 7 49 49 49 49 54 5
split_gain=1.89136e+09 2.63466e+08 2.06229e+08 4.5547e+07 4.14617e+07 2.01779e+07 1.43845e+07 1.11804e+07 9.22549e+06 6.83869e+06 6.45316e+06 5.81451e+06 5.28969e+06 4.41257e+06 3.73972e+06 4.41086e+06 2.86238e+06 2.76011e+06 2.30372e+06 2.29959e+06 1.97916e+06 1.58399e+06 1.5225e+06 1.46927e+06 1.46327e+06 1.2868e+06 1.26967e+06 1.26029e+06 1.1973e+06 1.18744e+06 1.13436e+06 1.13042e+06 1.11221e+06 1.07317e+06 1.05678e+06 970294 948925 853575 810180 801712 774117 760181 658066 655198 633390 590247 584532 572566 571164 539057 405292 399331 392491 351995 348951 348179 342025 334574 332026 330108 301570 383323
threshold=8.3050000000000015 2.7950000000000004 13.775 1.4850000000000001 4.8950000000000005 20.195000000000004 1.0000000180025095e-35 10.705000000000002 352.50000000000006 0.9850000000000001 2.0850000000000004 3.6550000000000007 6.3950000000000005 132.50000000000003 16.225000000000005 1.0000000180025095e-35 1.0000000180025095e-35 1.0000000180025095e-35 352.50000000000006 352.50000000000006 12.225000000000003 352.50000000000006 9.5750000000000011 -1.0000000180025095e-35 1.0000000180025095e-35 264.50000000000006 352.50000000000006 1.0000000180025095e-35 2.0000000000000004 352.50000000000006 1.0000000180025095e-35 352.50000000000006 1.0000000180025095e-35 352.50000000000006 0.74500000000000011 -1.0000000180025095e-35 352.50000000000006 352.50000000000006 352.50000000000006 263.50000000000006 352.50000000000006 1.2450000000000003 1.7850000000000004 232.50000000000003 7.3950000000000005 5.6050000000000013 1.0000000180025095e-35 3.1850000000000005 1.0000000180025095e-35 2.3950000000000005 1.0000000180025095e-35 4.1750000000000007 352.50000000000006 4.2150000000000007 1.0000000180025095e-35 352.50000000000006 1.0000000180025095e-35 -1.0000000180025095e-35 1.0000000180025095e-35 1.0000000180025095e-35 0.50495637864894027 4.5000000000000009
decision_type=2 2 2 2 2 2 2 2 2 2 2 2 2 2 2 2 2 2 2 2 2 2 2 2 2 2 2 2 2 2 2 2 2 2 2 2 2 2 2 2 2 2 2 2 2 2 2 2 2 2 2 2 2 2 2 2 2 2 2 2 2 2
left_child=1 3 7 9 11 8 13 19 14 25 33 23 31 16 24 17 -7 39 20 22 56 46 50 40 30 28 44 38 -1 32 -4 45 51 35 -30 42 60 41 49 -16 47 58 -5 -15 -14 59 -8 -3 -22 -12 -2 -13 -25 -34 -24 -29 -9 -43 -11 -6 -18 -62
right_child=2 4 5 10 12 6 21 18 -10 37 27 29 26 43 15 -17 36 -19 -20 -21 48 -23 54 52 -26 -27 -28 55 34 -31 -32 -33 53 -35 -36 -37 -38 -39 -40 -41 -42 57 -44 -45 -46 -47 -48 -49 -50 -51 -52 -53 -54 -55 -56 -57 -58 -59 -60 -61 61 -63
leaf_value=3.4775914819613805 0.67834089543232312 -0.00063084460802962153 1.9195439622575963 -0.21479921877169367 0.27944187445822705 3.7980878688741089 2.1864931188604846 0.96881300112648949 2.4085559959772862 -0.30147614842410592 -0.11599832177494732 0.13268279574322542 0.41543876766734994 3.6070898729585306 2.3846291582043757 1.6195218707591015 2.4448884382097527 1.6381103601691809 1.6242172617750008 1.1998101751463617 1.4005159393639375 2.6982631139187681 0.81628039030915633 -0.053225638309823423 1.296928916589136 2.4914786597026737 0.85061724494773072 -0.15616688524774003 -0.4032836634744541 0.40242919325958504 1.4754824060073815 0.6087049960863905 0.044524088123236862 -0.053305282648013354 -0.35383864402273463 -0.24471564484151662 3.3745633817869698 -0.16516466145009726 0.10682411038109341 1.7373350378131365 0.26765685916986287 -0.25678693409988224 -0.16408884975125895 2.9376485958251894 0.5144550932331754 0.3238481445419798 1.7952186749371604 0.068439552183759675 1.1144429182894078 -0.061749173823747297 0.57851870458756216 0.20447643773060198 0.16867012530929368 0.11839698932499783 0.71144539620409675 0.026516576556467088 0.85816587211566098 -0.30200602200197235 -0.34173136763502998 0.19864320887722187 2.3281049644548446 1.7930775432386246
leaf_weight=201 261185 646662 18236 1429256 269206 3942 10283 209242 37179 1626194 930430 407981 373322 11553 35592 747037 41780 25833 15423 23991 20190 5365 229435 808295 115028 390 21288 1043069 2348080 40049 68068 26418 354419 112530 2002038 1324918 2447 129679 54216 5528 35703 1257766 1158185 5352 284670 380941 133466 559764 128568 901698 166522 368753 20432 295864 121379 26751 104852 606234 747790 238325 14364 4368
leaf_count=201 261185 646662 18236 1429256 269206 3942 10283 209242 37179 1626194 930430 407981 373322 11553 35592 747037 41780 25833 15423 23991 20190 5365 229435 808295 115028 390 21288 1043069 2348080 40049 68068 26418 354419 112530 2002038 1324918 2447 129679 54216 5528 35703 1257766 1158185 5352 284670 380941 133466 559764 128568 901698 166522 368753 20432 295864 121379 26751 104852 606234 747790 238325 14364 4368
internal_value=-6.68834e-05 -0.157848 1.28074 -0.259515 0.153156 1.72816 2.14927 0.831705 1.63497 -0.335723 -0.164341 0.0577578 0.364872 2.6734 1.60664 1.65437 2.49101 2.04316 1.02306 0.717661 1.00303 1.8547 0.702803 0.0038064 1.41369 -0.380092 0.470572 -0.108248 -0.380349 0.133913 1.56931 0.286392 0.126378 -0.20554 -0.380528 -0.209918 2.40917 -0.291525 -0.0836623 2.29761 0.0382072 -0.295392 -0.1921 3.39517 0.458277 0.276808 1.82321 0.0314168 1.15327 -0.0892991 0.639477 0.166767 -0.0477548 0.0781346 0.780008 -0.151599 0.931877 -0.271494 -0.314156 0.241501 2.37012 2.20336
internal_weight=2.33977e+07 2.08315e+07 2.56621e+06 1.56994e+07 5.13209e+06 1.28542e+06 232920 1.28079e+06 1.0525e+06 8.71837e+06 6.98105e+06 3.53792e+06 1.59417e+06 83806 1.01532e+06 813990 66901 66953 478275 802512 462852 149114 778521 2.07086e+06 201332 4.35071e+06 679280 2.95616e+06 4.35032e+06 1.46707e+06 86304 914890 1.42702e+06 4.02489e+06 4.35012e+06 3.91236e+06 62959 4.36766e+06 1.88634e+06 41120 1.24213e+06 4.23798e+06 2.58744e+06 16905 657992 888472 143749 1.20643e+06 148758 1.83213e+06 427707 776734 828727 650283 350814 1.06982e+06 314094 1.864e+06 2.37398e+06 507531 60512 18732
internal_count=23397725 20831517 2566208 15699425 5132092 1285421 232920 1280787 1052501 8718372 6981053 3537922 1594170 83806 1015322 813990 66901 66953 478275 802512 462852 149114 778521 2070856 201332 4350709 679280 2956164 4350319 1467066 86304 914890 1427017 4024889 4350118 3912359 62959 4367663 1886344 41120 1242129 4237984 2587441 16905 657992 888472 143749 1206426 148758 1832128 427707 776734 828727 650283 350814 1069820 314094 1864000 2373984 507531 60512 18732
is_linear=0
shrinkage=0.05


Tree=4
num_leaves=63
num_cat=0
split_feature=19 19 19 1 19 19 1 19 19 7 19 19 19 19 19 19 7 19 7 19 1 1 49 49 13 19 7 49 1 7 1 7 49 7 1 7 19 7 7 15 49 7 19 19 1 19 19 7 19 14 1 19 13 7 1 1 1 19 1 19 50 49
split_gain=1.70703e+09 2.22633e+08 2.06045e+08 4.75661e+07 3.70527e+07 3.58951e+07 1.88441e+07 1.57659e+07 9.73804e+06 9.61519e+06 7.26054e+06 5.92911e+06 5.18133e+06 4.8416e+06 4.70984e+06 3.29293e+06 2.43336e+06 1.81417e+06 1.7236e+06 1.64194e+06 1.50059e+06 1.35259e+06 1.29508e+06 1.18685e+06 1.18378e+06 1.16126e+06 1.12846e+06 1.1043e+06 1.07578e+06 1.06708e+06 936828 911225 799602 769470 763730 742752 705033 698632 697948 665823 663372 616723 616125 578134 558211 528807 526530 468859 462508 439096 469843 411507 411074 396880 392527 1.01845e+06 376884 373152 356842 354928 354657 341607
threshold=7.9150000000000009 2.6650000000000005 13.145000000000001 264.50000000000006 1.3950000000000002 4.535000000000001 2.0000000000000004 20.195000000000004 10.105000000000002 352.50000000000006 15.765000000000002 1.9450000000000001 6.035000000000001 0.89500000000000013 3.3850000000000002 20.195000000000004 352.50000000000006 20.195000000000004 352.50000000000006 11.355000000000002 264.50000000000006 264.50000000000006 -1.0000000180025095e-35 -1.0000000180025095e-35 1.0000000180025095e-35 8.9950000000000028 352.50000000000006 1.0000000180025095e-35 2.0000000000000004 352.50000000000006 264.50000000000006 352.50000000000006 1.0000000180025095e-35 352.50000000000006 2.0000000000000004 352.50000000000006 1.1450000000000002 352.50000000000006 352.50000000000006 1.0000000180025095e-35 1.0000000180025095e-35 352.50000000000006 6.9050000000000011 2.2850000000000006 264.50000000000006 0.66500000000000015 1.6850000000000003 352.50000000000006 16.225000000000005 1.0000000180025095e-35 137.50000000000003 3.8550000000000004 1.0000000180025095e-35 352.50000000000006 228.50000000000003 166.50000000000003 264.50000000000006 17.905000000000005 264.50000000000006 16.605000000000004 1.0000000180025095e-35 1.0000000180025095e-35
decision_type=2 2 2 2 2 2 2 2 2 2 2 2 2 2 2 2 2 2 2 2 2 2 2 2 2 2 2 2 2 2 2 2 2 2 2 2 2 2 2 2 2 2 2 2 2 2 2 2 2 2 2 2 2 2 2 2 2 2 2 2 2 2
left_child=1 4 8 6 13 14 15 57 18 10 49 31 21 28 27 37 19 59 25 56 22 29 38 33 -17 -2 42 41 -1 40 45 32 46 43 -21 36 -15 -4 51 -19 -7 60 -14 -13 -36 -30 -6 -9 -11 -8 -51 -16 -23 -24 55 -41 -10 -5 -29 -12 -3 -27
right_child=2 5 3 7 11 12 9 47 16 48 17 23 26 35 20 24 -18 39 -20 34 -22 52 53 -25 -26 61 -28 58 30 -31 -32 -33 -34 -35 44 -37 -38 -39 -40 54 -42 -43 -44 -45 -46 -47 -48 -49 -50 50 -52 -53 -54 -55 -56 -57 -58 -59 -60 -61 -62 -63
leaf_value=3.2421733043189556 0.54879054478620215 -0.02298977513082795 2.255255181811946 1.9309504376923075 -0.21871310949046319 0.26157142008653222 1.1840791027385744 4.0531418830310297 0.80217040255622418 1.9140991164705543 1.4339766625864168 -0.12813021859523549 0.35440513528293471 -0.31386228372760522 0.090268564764434248 2.9165735456172714 1.4555115203832019 2.044985020014165 1.0576304598979416 1.9963236777208142 1.49612542093905 1.6174917832619045 0.035649987298675488 -0.16086153739115849 4.1077113703672756 0.71122951736172879 0.76144358219492747 -0.069512596631631757 -0.39071649673314945 0.52654302993330093 2.1451468237362432 -0.071526329987185583 -0.24678200862511243 0.076860226460225486 0.95921949222567615 -0.17578507423851192 -0.27333190017217163 3.2743424896112212 0.37928102388965912 1.6580298650557606 0.18108048954701675 0.21885370797317846 0.44872486460927946 -0.074919124744612917 1.6114940097662409 -0.35187715045132539 -0.17350791776258834 5.2368849921097418 2.3355534600362016 1.559950864845618 1.1302442592296937 0.15726308911529527 0.38852739724772262 0.26896972824017423 1.5601871862908547 2.0511008353639815 1.4751235216401484 2.4647013193938569 1.5092194007492721 1.5366849874008957 0.032791586690243145 0.61327327574700385
leaf_weight=206 341387 627242 46038 11463 1476962 544662 157382 23944 325429 7960 95211 1095456 372811 2328334 478464 6158 19023 12738 22776 1817 1902 2291 723708 1172543 3156 244152 22060 757216 1690711 29943 370 113922 1314990 61006 254510 134302 1990073 1746 27218 103800 482960 33862 323291 955892 3323 1819595 1142383 868 35816 17228 10088 440000 968 18697 55375 19592 2094 4587 358 723426 522167 140073
leaf_count=206 341387 627242 46038 11463 1476962 544662 157382 23944 325429 7960 95211 1095456 372811 2328334 478464 6158 19023 12738 22776 1817 1902 2291 723708 1172543 3156 244152 22060 757216 1690711 29943 370 113922 1314990 61006 254510 134302 1990073 1746 27218 103800 482960 33862 323291 955892 3323 1819595 1142383 868 35816 17228 10088 440000 968 18697 55375 19592 2094 4587 358 723426 522167 140073
internal_value=-6.35277e-05 -0.154028 1.18458 1.62502 -0.251527 0.121661 1.57205 3.30466 0.749995 1.53111 1.50445 -0.170433 0.305659 -0.326202 0.0315085 2.46015 0.898951 1.55715 0.629339 0.88092 0.0925357 0.23545 0.0909541 -0.120522 3.32022 0.615896 0.409368 -0.0216309 -0.370107 0.232316 -0.370319 -0.210932 -0.214969 -0.0981307 0.974826 -0.291583 -0.295184 2.2925 0.129758 1.69569 0.223742 0.00854697 0.39821 -0.103335 0.967627 -0.370584 -0.198998 4.09457 2.25892 1.2162 1.40126 0.122363 1.25248 0.041526 1.6708 1.72044 0.806473 2.08351 -0.0687663 1.52474 0.00235123 0.675519
internal_weight=2.33977e+07 2.07066e+07 2.69116e+06 1.33658e+06 1.52967e+07 5.40982e+06 1.29571e+06 40862 1.35458e+06 1.23862e+06 1.19484e+06 7.33315e+06 1.77899e+06 7.96359e+06 3.63083e+06 57098 606196 1.01014e+06 748388 587173 1.68999e+06 1.06082e+06 1.68809e+06 3.2849e+06 9314 725612 718162 1.94084e+06 3.51088e+06 1.05756e+06 3.51068e+06 4.04826e+06 3.93434e+06 2.11235e+06 259650 4.45271e+06 4.31841e+06 47784 945682 191505 1.02762e+06 1.18327e+06 696102 2.05135e+06 257833 3.51031e+06 2.61934e+06 24812 43776 184698 27316 918464 3259 742405 178767 123392 327523 16050 757574 818637 1.14941e+06 384225
internal_count=23397725 20706565 2691160 1336576 15296745 5409820 1295714 40862 1354584 1238616 1194840 7333154 1778986 7963591 3630834 57098 606196 1010142 748388 587173 1689989 1060824 1688087 3284897 9314 725612 718162 1940845 3510882 1057565 3510676 4048257 3934335 2112354 259650 4452709 4318407 47784 945682 191505 1027622 1183271 696102 2051348 257833 3510306 2619345 24812 43776 184698 27316 918464 3259 742405 178767 123392 327523 16050 757574 818637 1149409 384225
is_linear=0
shrinkage=0.05


Tree=5
num_leaves=63
num_cat=0
split_feature=19 19 19 1 19 19 1 19 19 7 19 19 19 19 19 19 7 7 1 1 12 19 12 12 19 19 13 12 1 7 0 7 19 12 1 14 15 7 0 13 1 1 19 7 7 0 19 7 7 7 7 19 12 19 19 7 19 12 1 1 7 1
split_gain=1.54041e+09 2.14777e+08 1.68014e+08 4.31439e+07 3.71459e+07 3.3866e+07 1.66099e+07 1.26473e+07 9.14024e+06 8.44941e+06 5.69858e+06 5.15266e+06 5.11617e+06 4.37974e+06 3.9096e+06 2.8978e+06 1.87554e+06 1.87509e+06 1.69568e+06 1.57947e+06 1.57183e+06 1.47058e+06 1.39845e+06 1.29036e+06 1.27768e+06 1.2404e+06 1.11089e+06 1.07873e+06 1.07614e+06 976677 966298 940883 904285 853524 830908 689911 609763 608221 607304 585447 583834 543404 512137 504192 499134 492641 477703 462883 457220 455246 446187 426817 418677 409220 405142 401863 400799 372923 370513 358401 356352 355114
threshold=8.3050000000000015 2.7950000000000004 13.775 264.50000000000006 1.4950000000000003 4.9650000000000007 2.0000000000000004 20.195000000000004 10.705000000000002 352.50000000000006 0.99500000000000011 2.0950000000000002 3.7050000000000005 16.225000000000005 6.5050000000000008 20.195000000000004 352.50000000000006 352.50000000000006 2.0000000000000004 264.50000000000006 1.0000000180025095e-35 20.195000000000004 1.0000000180025095e-35 1.0000000180025095e-35 12.225000000000003 9.5750000000000011 1.0000000180025095e-35 1.0000000180025095e-35 2.0000000000000004 352.50000000000006 264.50000000000006 352.50000000000006 0.76500000000000012 1.0000000180025095e-35 264.50000000000006 1.0000000180025095e-35 1.0000000180025095e-35 352.50000000000006 137.50000000000003 1.0000000180025095e-35 264.50000000000006 264.50000000000006 5.705000000000001 352.50000000000006 352.50000000000006 132.50000000000003 3.2450000000000006 352.50000000000006 339.50000000000006 339.50000000000006 352.50000000000006 1.7650000000000003 1.0000000180025095e-35 4.285000000000001 2.4350000000000005 352.50000000000006 7.3950000000000005 1.0000000180025095e-35 86.500000000000014 264.50000000000006 352.50000000000006 137.50000000000003
decision_type=2 2 2 2 2 2 2 2 2 2 2 2 2 2 2 2 2 2 2 2 2 2 2 2 2 2 2 2 2 2 2 2 2 2 2 2 2 2 2 2 2 2 2 2 2 2 2 2 2 2 2 2 2 2 2 2 2 2 2 2 2 2
left_child=1 4 8 6 10 12 15 -5 16 13 28 23 20 35 31 37 25 18 -10 27 40 -15 50 51 59 52 -17 43 -1 56 32 34 -30 -12 42 -8 -23 -4 -28 -36 44 -26 -7 53 46 -9 -3 -22 -25 -24 54 -6 -2 -14 -13 -29 -16 -27 -38 -20 -35 -37
right_child=2 5 3 7 11 14 9 45 17 -11 33 22 19 21 29 26 -18 -19 24 -21 47 36 49 48 41 57 38 55 30 -31 -32 -33 -34 60 39 61 58 -39 -40 -41 -42 -43 -44 -45 -46 -47 -48 -49 -50 -51 -52 -53 -54 -55 -56 -57 -58 -59 -60 -61 -62 -63
leaf_value=3.218796651953904 0.53884194975188104 -0.053839690424827752 2.1596444577971372 2.0117611102902324 -0.22745437802424306 0.22414937745738506 1.1733150700850781 4.0324778736751101 1.8891075263278982 2.162784990076966 -0.28031687174803577 -0.14750998577583896 0.06264285682797506 1.4557005005898558 0.38205132754086335 2.766171594199486 1.0822566234368112 1.4668985388792264 0.83474343243032834 1.4412370098725749 0.059287229480513126 1.94474511234068 -0.060144131275748726 -0.1562163166126318 1.0040906429524525 0.66172220840042728 4.4965995538197063 0.18453390674470874 -0.36316489943541835 0.77985197328142564 2.198245224948157 0.56297126469211378 -0.31760263577778364 -0.2395130471121279 1.5671265978732523 1.4964613271707135 1.7481923915764126 3.1415387778165371 3.1105141285721913 0.30624689097454477 1.3423541049041563 1.6452423285089131 0.30115709691803599 0.32253674846020608 0.16574575413117218 3.560721387708774 0.0046146093108675752 0.27750953125634598 -0.050385390464186323 0.069144798858249382 0.035253421343794014 -0.18580803960244585 0.64113873737072435 0.12745977416563778 -0.099806578491826253 0.45203745849934118 0.46384322330371613 0.7669833398325514 1.5545903668859966 1.4323938616116232 -0.11702045505194791 1.1115253561066667
leaf_weight=212 268585 810149 43458 14385 1251372 499690 148875 16536 4341 42355 2591541 1035963 527459 772077 315838 6169 24064 15370 311414 2287 694046 12736 983143 1436285 141487 210648 1868 401839 2463741 19561 374 26495 1951729 1705098 2067 28778 29625 1637 1372 1660 782 3384 380164 24428 33814 8333 614713 25182 109863 73153 43375 1210197 159382 452348 780372 14548 284880 140126 149301 2529 61517 7569
leaf_count=212 268585 810149 43458 14385 1251372 499690 148875 16536 4341 42355 2591541 1035963 527459 772077 315838 6169 24064 15370 311414 2287 694046 12736 983143 1436285 141487 210648 1868 401839 2463741 19561 374 26495 1951729 1705098 2067 28778 29625 1637 1372 1660 782 3384 380164 24428 33814 8333 614713 25182 109863 73153 43375 1210197 159382 452348 780372 14548 284880 140126 149301 2529 61517 7569
internal_value=-7.87241e-05 -0.142486 1.15575 1.55972 -0.234286 0.138316 1.5083 3.19184 0.750606 1.46924 -0.302609 -0.147702 0.0545901 1.44368 0.335359 2.36184 0.647504 0.923576 0.905545 0.12833 0.00643013 1.48647 -0.0971343 -0.184494 0.896239 0.634069 3.16001 0.126216 -0.342639 0.432162 -0.34281 0.269382 -0.343025 -0.262048 0.260578 1.221 1.61044 2.1953 3.90977 1.00556 -0.0233834 1.01907 0.257423 0.098161 -0.0241157 3.87442 -0.0286214 0.0669278 -0.148696 -0.0511903 -0.12323 -0.20698 0.576939 0.0925669 -0.127015 0.19388 0.42084 0.703772 1.58665 0.839558 -0.235248 1.4163
internal_weight=2.33963e+07 2.08299e+07 2.5664e+06 1.28507e+06 1.56979e+07 5.13195e+06 1.24582e+06 39254 1.28133e+06 1.19132e+06 8.77421e+06 6.92372e+06 3.6016e+06 1.14896e+06 1.53036e+06 54504 802805 478525 463155 1.42291e+06 2.17869e+06 963739 2.91601e+06 4.00772e+06 458814 778741 9409 1.42062e+06 4.41606e+06 620279 4.41584e+06 910076 4.41547e+06 4.35816e+06 883581 185222 191662 45095 3240 3727 1.45946e+06 144871 879854 1.00424e+06 1.45868e+06 24869 1.42486e+06 719228 1.54615e+06 1.0563e+06 1.85971e+06 2.46157e+06 427967 979807 1.81634e+06 416387 600718 350774 178926 313943 1.76662e+06 36347
internal_count=23396289 20829885 2566404 1285074 15697935 5131950 1245820 39254 1281330 1191316 8774212 6923723 3601595 1148961 1530355 54504 802805 478525 463155 1422909 2178686 963739 2916006 4007717 458814 778741 9409 1420622 4416056 620279 4415844 910076 4415470 4358156 883581 185222 191662 45095 3240 3727 1459458 144871 879854 1004235 1458676 24869 1424862 719228 1546148 1056296 1859710 2461569 427967 979807 1816335 416387 600718 350774 178926 313943 1766615 36347
is_linear=0
shrinkage=0.05


Tree=6
num_leaves=63
num_cat=0
split_feature=42 42 42 48 3 3 13 42 49 3 3 42 3 3 42 17 0 3 42 42 42 42 3 42 42 42 42 8 17 46 42 3 42 42 15 42 3 3 42 0 17 3 42 3 3 3 0 3 3 42 3 3 3 3 17 42 3 48 42 3 42 3
split_gain=1.13647e+09 1.33537e+08 1.14713e+08 6.35717e+07 4.41801e+07 2.0607e+07 3.15011e+07 2.87141e+07 1.79773e+07 1.4086e+07 1.39803e+07 2.87501e+07 1.08725e+07 1.08494e+07 1.06402e+07 1.0317e+07 9.8502e+06 6.85951e+06 5.04107e+06 4.98125e+06 4.96376e+06 4.79737e+06 4.34992e+06 3.85284e+06 3.79602e+06 3.78369e+06 3.7118e+06 3.03947e+06 2.74221e+06 2.14772e+06 2.10544e+06 1.94208e+06 1.92095e+06 1.91927e+06 1.91125e+06 1.87609e+06 2.71123e+06 2.26219e+06 1.851e+06 1.84241e+06 1.65686e+06 1.63745e+06 1.48162e+06 1.41077e+06 1.39632e+06 1.35178e+06 1.25674e+06 1.14137e+06 1.06506e+06 1.02379e+06 1.50291e+06 1.01097e+06 987582 959865 945663 925004 1.29038e+06 921648 877698 1.09592e+06 859823 848070
threshold=98.095000000000013 195.50500000000002 44.210000000000008 0.25881904510252091 11.500000000000002 4.5000000000000009 1.0000000180025095e-35 21.290000000000003 -0.12940952255126037 15.500000000000002 18.500000000000004 312.98500000000007 17.500000000000004 5.5000000000000009 10.805000000000001 1.0000000180025095e-35 137.50000000000003 9.5000000000000018 69.820000000000022 145.61000000000004 141.21000000000001 12.805000000000001 14.500000000000002 31.530000000000005 67.205000000000027 64.810000000000016 136.64500000000001 50.500000000000007 1.0000000180025095e-35 5.3050000000000006 32.210000000000008 1.5000000000000002 382.73000000000008 24.005000000000006 1.0000000180025095e-35 4.8050000000000006 1.5000000000000002 1.0000000180025095e-35 59.790000000000006 160.50000000000003 1.0000000180025095e-35 8.5000000000000018 243.45500000000004 11.500000000000002 11.500000000000002 18.500000000000004 132.50000000000003 8.5000000000000018 2.5000000000000004 118.01000000000001 7.5000000000000009 14.500000000000002 2.5000000000000004 18.500000000000004 1.0000000180025095e-35 2.0450000000000004 1.5000000000000002 -0.78656609248549303 8.6450000000000014 12.500000000000002 166.51000000000002 20.500000000000004
decision_type=2 2 2 2 2 2 2 2 2 2 2 2 2 2 2 2 2 2 2 2 2 2 2 2 2 2 2 2 2 2 2 2 2 2 2 2 2 2 2 2 2 2 2 2 2 2 2 2 2 2 2 2 2 2 2 2 2 2 2 2 2 2
left_child=2 3 5 8 13 6 14 21 20 23 15 42 25 38 29 34 54 28 47 -19 -2 58 -23 43 57 -6 -10 -17 -5 35 53 -16 -13 52 -3 37 -37 -1 -4 -18 46 -20 -12 -9 -25 -32 -34 -15 -35 50 -30 60 -33 -11 -8 -39 -57 -14 -7 -60 -22 -26
right_child=1 10 4 17 12 7 16 9 26 30 11 32 24 18 31 27 39 19 41 -21 51 22 -24 44 61 -27 -28 -29 49 -31 45 33 40 48 -36 36 -38 55 -40 -41 -42 -43 -44 -45 -46 -47 -48 -49 -50 -51 -52 -53 -54 -55 -56 56 -58 -59 59 -61 -62 -63
leaf_value=-0.095577450803065414 0.56035012110623172 2.1605819316972403 0.83951690782827759 1.8023121756752041 0.096417647345952748 -0.33431967919194122 1.4451849541206505 -0.033943570740509667 0.22203108189337994 -0.18993822549409978 0.63659980188836185 1.3281058791096298 -0.037872583921544981 0.45598531691876754 1.1395528464404545 1.3592481500696476 0.48993371125946239 0.78291985017284293 0.82662304419259736 1.3779149349792801 0.87045565098724154 -0.18591428117417097 -0.28561184417584046 0.11362945964739285 0.11836182966012046 0.28011302988676035 0.4427282785569136 1.9704805305539168 1.3945157163487736 0.4208162508286063 -0.097691623575058562 0.38793175800946661 1.7443360201210418 1.4380365423302512 1.74737006964311 0.29158996435804346 -0.10744293922244788 -0.31429502456971758 1.432559596103858 -0.081786257041967514 1.4812809032149856 0.53456111194133227 0.89131615594028435 -0.12496551692084396 -0.0093904696753237503 -0.18853702887783674 2.5769220412586251 0.24875728639843217 0.5102123993354597 1.4290796877639009 0.89867489284912727 0.7733283918418814 0.070157113333686613 -0.25747529468182095 0.98235457294434225 -0.070697183098300351 -0.27869276888967909 -0.1216716794162393 -0.25339797900632577 -0.32385627194904021 1.1815799545871772 0.013820725266338062
leaf_weight=546072 339598 42679 22036 38283 778167 1801726 13183 714446 418021 1005596 152106 141449 702071 100913 6746 514131 27508 105223 75653 52842 66212 2327132 2064886 358043 360450 438167 350057 21177 33989 17324 707980 36139 39405 3458 81294 56284 174688 235792 32659 28892 115935 131253 91396 1053309 648341 971235 5122 194545 29302 102938 27769 166015 75590 1103327 67802 139447 160269 616010 1146846 1063845 33415 420101
leaf_count=546072 339598 42679 22036 38283 778167 1801726 13183 714446 418021 1005596 152106 141449 702071 100913 6746 514131 27508 105223 75653 52842 66212 2327132 2064886 358043 360450 438167 350057 21177 33989 17324 707980 36139 39405 3458 81294 56284 174688 235792 32659 28892 115935 131253 91396 1053309 648341 971235 5122 194545 29302 102938 27769 166015 75590 1103327 67802 139447 160269 616010 1146846 1063845 33415 420101
internal_value=-7.47739e-05 0.919304 -0.13216 0.638414 0.112884 -0.189369 -0.0198866 -0.207697 0.483201 -0.129321 1.32369 1.13642 0.0436489 0.52489 -0.0870686 1.47862 0.704384 1.2288 0.45208 0.981831 0.686992 -0.268893 -0.232787 -0.0437188 -0.0252882 0.162591 0.322615 1.38343 1.42112 -0.132262 -0.192009 0.310334 1.46244 0.271618 1.88962 -0.139562 -0.0102052 -0.167186 1.19363 0.197059 1.58086 0.641351 0.732205 -0.0881786 0.0343765 -0.150235 1.84012 0.319536 0.608154 1.33252 1.17157 0.848892 0.172942 -0.225272 1.0577 -0.240207 -0.18192 -0.0770364 -0.308416 -0.287304 0.974808 0.0620967
internal_weight=2.33963e+07 2.93906e+06 2.04572e+07 1.73436e+06 3.87202e+06 1.65852e+07 1.6185e+06 1.49667e+07 1.37332e+06 6.56228e+06 1.20469e+06 545413 3.31497e+06 557059 1.48111e+06 659281 137385 361044 502364 158065 605240 8.40444e+06 4.39202e+06 2.77414e+06 2.09863e+06 1.21633e+06 768078 535308 202979 1.32988e+06 3.78814e+06 151235 301911 144489 123973 1.31255e+06 230972 1.08158e+06 54695 56400 160462 206906 243502 1.76776e+06 1.00638e+06 1.67922e+06 44527 295458 32760 164696 61758 265642 111729 2.10892e+06 80985 535508 299716 1.31808e+06 4.01242e+06 2.21069e+06 99627 780551
internal_count=23396289 2939056 20457233 1734362 3872025 16585208 1618496 14966712 1373318 6562277 1204694 545413 3314966 557059 1481111 659281 137385 361044 502364 158065 605240 8404435 4392018 2774139 2098632 1216334 768078 535308 202979 1329876 3788138 151235 301911 144489 123973 1312552 230972 1081580 54695 56400 160462 206906 243502 1767755 1006384 1679215 44527 295458 32760 164696 61758 265642 111729 2108923 80985 535508 299716 1318081 4012417 2210691 99627 780551
is_linear=0
shrinkage=0.05


Tree=7
num_leaves=63
num_cat=0
split_feature=19 19 19 1 19 19 1 19 19 8 19 19 19 19 19 19 8 1 1 12 8 19 12 12 19 19 13 4 1 1 12 12 0 8 19 8 1 1 13 0 15 13 0 8 19 8 8 8 1 1 43 12 8 1 13 8 12 8 43 1 13 12
split_gain=1.25913e+09 1.81219e+08 1.31109e+08 3.81509e+07 3.32122e+07 2.69218e+07 1.41404e+07 1.12632e+07 6.71444e+06 6.45461e+06 5.66198e+06 4.08405e+06 4.02152e+06 3.67834e+06 3.006e+06 2.58955e+06 1.46609e+06 1.4471e+06 1.43507e+06 1.30274e+06 1.29208e+06 1.24772e+06 1.16774e+06 1.16121e+06 1.03674e+06 1.03164e+06 1.02877e+06 895447 893578 832034 815524 792329 779240 752819 710719 699175 616136 606477 630823 550993 542814 479221 470724 450478 426180 425803 422055 414830 409287 912241 407027 355400 351231 344124 623326 342869 330708 328961 323378 321672 317194 315037
threshold=8.4950000000000028 2.8950000000000005 13.775 264.50000000000006 1.5650000000000002 5.1050000000000013 2.0000000000000004 20.195000000000004 10.905000000000003 50.500000000000007 1.0450000000000002 2.1850000000000005 3.8550000000000004 16.225000000000005 6.7950000000000008 20.195000000000004 50.500000000000007 264.50000000000006 2.0000000000000004 1.0000000180025095e-35 50.500000000000007 20.195000000000004 1.0000000180025095e-35 1.0000000180025095e-35 9.7250000000000032 0.78500000000000014 1.0000000180025095e-35 18.500000000000004 2.0000000000000004 264.50000000000006 1.0000000180025095e-35 1.0000000180025095e-35 264.50000000000006 50.500000000000007 12.225000000000003 50.500000000000007 264.50000000000006 264.50000000000006 1.0000000180025095e-35 137.50000000000003 1.0000000180025095e-35 1.0000000180025095e-35 132.50000000000003 50.500000000000007 5.8050000000000006 50.500000000000007 50.500000000000007 50.500000000000007 228.50000000000003 166.50000000000003 3.2450000000000006 1.0000000180025095e-35 50.500000000000007 264.50000000000006 1.0000000180025095e-35 50.500000000000007 1.0000000180025095e-35 50.500000000000007 1.8450000000000004 264.50000000000006 1.0000000180025095e-35 1.0000000180025095e-35
decision_type=2 2 2 2 2 2 2 2 2 2 2 2 2 2 2 2 2 2 2 2 2 2 2 2 2 2 2 2 2 2 2 2 2 2 2 2 2 2 2 2 2 2 2 2 2 2 2 2 2 2 2 2 2 2 2 2 2 2 2 2 2 2
left_child=1 4 8 6 10 12 15 -5 16 13 25 22 19 41 33 43 24 30 -10 36 29 -15 58 -13 51 28 -17 -11 -1 34 57 -12 -30 37 -20 53 50 44 -39 -28 -23 -8 -9 -4 -7 -24 -25 -21 49 -42 -3 -2 -32 -16 -55 -33 -27 -14 -6 61 -31 -26
right_child=2 5 3 7 11 14 9 42 18 27 31 23 17 21 35 26 -18 -19 20 47 -22 40 45 46 59 56 39 -29 32 60 52 55 -34 -35 -36 -37 -38 38 -40 -41 48 -43 -44 -45 -46 -47 -48 -49 -50 -51 -52 -53 -54 54 -56 -57 -58 -59 -60 -61 -62 -63
leaf_value=3.0562751133138097 0.50239764321444669 -0.022036907763768845 1.9591874601501083 1.8316077151501835 -0.18655210841600972 0.21567829151542472 1.1964162723119187 3.7438833360680244 1.7422027040452357 1.2771188881710371 -0.24503808097088808 -0.10044696935205676 0.098144146034740851 1.3132482171877915 0.39496452165456147 2.5251793688976174 0.96566959432802091 1.3595462718656997 0.7644278870214769 0.068829043089399147 1.2908604273434938 1.7720504618558146 -0.12612188101543492 -0.038756294859522374 0.6112822426777158 -0.29774556962695303 4.1846292188023471 1.9728891240065463 -0.32797350237837691 1.9310803847783875 0.18044296121563697 -0.20584753539957779 2.2458792581196665 0.50964334120866916 0.90392572809774352 0.69771797437778982 1.2846874940195645 1.4922839464876634 0.26763542394315309 2.8644011042172117 1.4252611385174014 1.0319293468531121 3.2827689469150982 2.7487425863145551 0.28596429159438957 0.019928137485806886 0.14092942690402938 0.28176854534938894 1.3203811923709736 1.7982499836886452 0.046134062953906985 0.59620629821676618 0.43891182145013208 1.7085869483289728 0.44564560071106585 -0.085419806002560966 -0.2603387503572645 0.27326787240674416 -0.14032339319719311 1.2916579291213131 1.1451300877966637 0.70869654781511993
leaf_weight=195 265546 1136518 43209 14385 1924044 432530 73893 16536 4444 5192 2615806 1758215 913481 768533 540205 6169 26882 2391 259294 655104 15246 12692 1434317 947753 204851 1404400 1868 42353 2581458 2011 372785 1700786 294 29703 140944 20269 921 2011 2204 1372 103509 110525 8333 1886 430175 51704 33847 23699 55139 19480 271211 162914 13624 1401 3228 61232 1020010 27627 470875 1969 3552 139539
leaf_count=195 265546 1136518 43209 14385 1924044 432530 73893 16536 4444 5192 2615806 1758215 913481 768533 540205 6169 26882 2391 259294 655104 15246 12692 1434317 947753 204851 1404400 1868 42353 2581458 2011 372785 1700786 294 29703 140944 20269 921 2011 2204 1372 103509 110525 8333 1886 430175 51704 33847 23699 55139 19480 271211 162914 13624 1401 3228 61232 1020010 27627 470875 1969 3552 139539
internal_value=-7.10267e-05 -0.127292 1.05749 1.41047 -0.208614 0.13947 1.36211 2.94524 0.687867 1.32608 -0.269112 -0.122863 0.0626558 1.30235 0.319053 2.14965 0.602663 0.13061 0.848405 0.0193623 0.838971 1.34166 -0.155859 -0.0761251 0.590068 -0.305431 2.90417 1.89691 -0.327425 0.821994 0.128397 -0.22758 -0.32768 0.262129 0.813552 0.40937 -0.00805732 0.253649 0.851945 3.62568 1.4561 1.09784 3.58939 1.99222 0.250725 -0.12104 -0.0325605 0.0762634 1.43359 1.48434 -0.00890318 0.538067 0.189556 0.398643 0.827914 -0.201663 -0.282008 0.103285 -0.177463 0.654396 1.42928 0.650753
internal_weight=2.33963e+07 2.0884e+07 2.51227e+06 1.28507e+06 1.60049e+07 4.87909e+06 1.24582e+06 39254 1.22719e+06 1.19132e+06 9.38418e+06 6.62076e+06 3.41736e+06 1.14377e+06 1.46173e+06 54504 801701 1.32991e+06 425491 2.08745e+06 421047 959353 3.88094e+06 2.73982e+06 774819 5.00636e+06 9409 47545 2.58195e+06 405801 1.32752e+06 4.37782e+06 2.58175e+06 896623 400238 565103 1.40865e+06 866920 4215 3240 190820 184418 24869 45095 862705 1.48602e+06 981600 678803 178128 122989 1.40773e+06 428460 386409 544834 4629 1.76202e+06 2.42441e+06 941108 2.39492e+06 346359 5563 344390
internal_count=23396289 20884023 2512266 1285074 16004936 4879087 1245820 39254 1227192 1191316 9384181 6620755 3417361 1143771 1461726 54504 801701 1329908 425491 2087453 421047 959353 3880940 2739815 774819 5006357 9409 47545 2581947 405801 1327517 4377824 2581752 896623 400238 565103 1408650 866920 4215 3240 190820 184418 24869 45095 862705 1486021 981600 678803 178128 122989 1407729 428460 386409 544834 4629 1762018 2424410 941108 2394919 346359 5563 344390
is_linear=0
shrinkage=0.05


Tree=8
num_leaves=63
num_cat=0
split_feature=19 19 19 1 19 19 1 19 7 19 19 19 19 19 19 19 7 7 19 12 1 12 1 7 13 12 19 7 1 12 19 0 12 49 19 7 0 1 7 1 7 0 7 19 7 19 19 7 1 13 7 7 12 7 19 43 13 12 19 14 1 5
split_gain=1.13654e+09 1.53595e+08 1.31008e+08 3.40254e+07 2.77002e+07 2.32917e+07 1.31435e+07 1.11655e+07 6.81915e+06 5.86609e+06 5.0041e+06 4.12981e+06 3.60141e+06 3.48449e+06 3.0512e+06 2.43862e+06 1.64815e+06 1.347e+06 1.24918e+06 1.18181e+06 1.16283e+06 1.13074e+06 1.03906e+06 942804 928480 917329 859944 827427 824895 801465 789184 762255 616106 557566 532130 524372 497271 485612 483360 462070 436621 424826 423127 397029 375776 371124 365760 359264 353248 351748 345654 345618 345021 324766 321331 320034 316247 309499 304081 290975 465065 290878
threshold=8.1050000000000022 2.5950000000000002 13.145000000000001 264.50000000000006 4.4850000000000012 1.3650000000000004 2.0000000000000004 20.195000000000004 352.50000000000006 10.305000000000001 15.765000000000002 6.035000000000001 1.885 3.2850000000000006 0.88500000000000012 20.195000000000004 352.50000000000006 352.50000000000006 20.195000000000004 1.0000000180025095e-35 264.50000000000006 1.0000000180025095e-35 264.50000000000006 352.50000000000006 1.0000000180025095e-35 1.0000000180025095e-35 11.615 352.50000000000006 2.0000000000000004 1.0000000180025095e-35 8.9950000000000028 264.50000000000006 1.0000000180025095e-35 -1.0000000180025095e-35 7.0550000000000006 352.50000000000006 137.50000000000003 2.0000000000000004 352.50000000000006 86.500000000000014 248.50000000000003 132.50000000000003 352.50000000000006 3.7550000000000003 352.50000000000006 0.66500000000000015 16.225000000000005 352.50000000000006 264.50000000000006 1.0000000180025095e-35 248.50000000000003 248.50000000000003 1.0000000180025095e-35 352.50000000000006 18.255000000000006 2.1650000000000005 1.0000000180025095e-35 1.0000000180025095e-35 0.25500000000000006 1.0000000180025095e-35 160.50000000000003 9.5000000000000018
decision_type=2 2 2 2 2 2 2 2 2 2 2 2 2 2 2 2 2 2 2 2 2 2 2 2 2 2 2 2 2 2 2 2 2 2 2 2 2 2 2 2 2 2 2 2 2 2 2 2 2 2 2 2 2 2 2 2 2 2 2 2 2 2
left_child=1 5 9 6 13 14 15 54 10 17 49 22 29 25 28 35 26 30 -12 42 21 38 27 34 -17 47 57 33 -1 53 -2 45 -16 -6 -13 -4 -26 -28 43 -20 -21 61 55 -15 -23 58 -10 -3 -39 -8 -31 -27 -32 -7 -5 -14 -24 -11 59 -30 -61 -9
right_child=2 4 3 7 11 12 8 41 46 16 18 23 19 20 32 24 -18 -19 39 40 -22 44 56 -25 36 51 37 -29 31 50 52 -33 -34 -35 -36 -37 -38 48 -40 -41 -42 -43 -44 -45 -46 -47 -48 -49 -50 -51 -52 -53 -54 -55 -56 -57 -58 -59 -60 60 -62 -63
leaf_value=2.8988202762849768 0.45289515201943487 -0.055639666096817135 1.8459550547275041 1.5889204753273258 0.21412586905425926 -0.19863592548232573 1.0698568720511701 3.4268773556617824 1.5536751122468475 0.63787855519382486 1.2416193687858508 0.29320205119081549 -0.1426167296644105 0.0071739971517355179 -0.25608426367390952 2.398922419856826 1.2279746841173305 0.90921154386736291 1.5511431780109524 -0.088418976479210709 1.2790930317887803 0.11796659324498381 1.36728843631354 0.64877090673900084 3.97540887038347 -0.0043886391213122109 1.6363571220105038 0.43904035502834582 -0.25598331726437074 -0.16524464153678387 0.52438589571123029 2.0953577689230172 -0.21775371641138164 0.14244918018057781 0.3778083387586218 2.733781862377699 2.7211914328842104 0.79435613463923671 0.23772516794554899 1.3474921571986933 -0.025583979265093773 3.1186324666137302 0.013816912010897473 0.063611322079161994 0.34017536711366653 -0.28772366743587785 1.9275444767916228 0.1182040334958022 1.348089930904097 0.92901994336403682 -0.1136470736884049 0.072048754257218128 0.61469650802242182 -0.076473031789931686 2.1155896318705123 -0.09512218556541821 0.29636163639830854 0.7378132055687161 -0.32537977191551265 0.56097135477291038 -0.260776368563234 3.8960957793709619
leaf_weight=201 283514 1286052 45936 12133 577907 2253967 73978 11962 8004 190276 818084 421823 1666025 611545 2557288 6169 17141 22698 33829 867734 1980 544339 2433 24006 1868 468668 1760 31845 76450 1007064 270741 331 1776711 511430 332216 1726 1372 201863 30399 157833 405736 8333 50588 635403 19715 1756523 35885 30422 2922 110672 478950 216062 173560 55750 3806 450629 962 130705 1606689 2933 4169 4574
leaf_count=201 283514 1286052 45936 12133 577907 2253967 73978 11962 8004 190276 818084 421823 1666025 611545 2557288 6169 17141 22698 33829 867734 1980 544339 2433 24006 1868 468668 1760 31845 76450 1007064 270741 331 1776711 511430 332216 1726 1372 201863 30399 157833 405736 8333 50588 635403 19715 1756523 35885 30422 2922 110672 478950 216062 173560 55750 3806 450629 962 130705 1606689 2933 4169 4574
internal_value=-6.74624e-05 -0.124122 0.978893 1.32624 0.0956978 -0.208246 1.28146 2.7478 1.24727 0.620553 1.22477 0.251736 -0.143675 0.018477 -0.268295 2.02334 0.745462 0.529903 1.26854 -0.106627 0.0680737 0.0667715 0.190463 0.340299 2.75897 -0.0272083 0.729783 0.187819 -0.303401 -0.177258 0.518074 -0.303588 -0.240371 0.180475 0.330478 1.87811 3.4444 0.809366 0.040735 1.38344 -0.0683993 3.40992 -0.12909 0.0359326 0.125733 -0.303818 1.85937 -0.0516224 0.802258 0.985445 -0.148614 0.0197307 0.559665 -0.195687 1.71469 -0.132505 1.06385 0.678573 -0.320544 -0.227544 0.0785933 3.55669
internal_weight=2.33963e+07 2.07649e+07 2.63134e+06 1.33616e+06 5.74721e+06 1.50177e+07 1.29536e+06 40808 1.23828e+06 1.29518e+06 1.1944e+06 1.90262e+06 7.23644e+06 3.84458e+06 7.7813e+06 57071 544667 750513 1.00975e+06 3.44071e+06 1.84338e+06 1.8414e+06 1.12458e+06 778045 9409 2.0012e+06 527526 1.12118e+06 3.4473e+06 3.79573e+06 727815 3.4471e+06 4.334e+06 1.08934e+06 754039 47662 3240 206545 1.27735e+06 191662 1.27347e+06 24869 2.16724e+06 1.24695e+06 564054 3.44676e+06 43889 1.31647e+06 204785 184650 1.48601e+06 684730 444301 2.30972e+06 15939 2.11665e+06 3395 320981 1.69024e+06 83552 7102 16536
internal_count=23396289 20764945 2631344 1336164 5747207 15017738 1295356 40808 1238285 1295180 1194396 1902622 7236443 3844585 7781295 57071 544667 750513 1009746 3440712 1843381 1841401 1124577 778045 9409 2001204 527526 1121182 3447296 3795731 727815 3447095 4333999 1089337 754039 47662 3240 206545 1277347 191662 1273470 24869 2167242 1246948 564054 3446764 43889 1316474 204785 184650 1486014 684730 444301 2309717 15939 2116654 3395 320981 1690241 83552 7102 16536
is_linear=0
shrinkage=0.05


Tree=9
num_leaves=63
num_cat=0
split_feature=19 19 19 19 19 19 17 19 7 19 19 19 19 0 19 13 7 17 13 7 12 7 19 12 7 12 13 0 12 19 0 7 0 7 17 0 7 19 49 12 7 7 0 0 7 7 7 7 7 19 7 12 12 19 7 12 19 19 14 14 13 19
split_gain=1.02577e+09 1.34445e+08 1.23945e+08 2.37865e+07 2.06035e+07 1.26152e+07 7.8997e+06 5.88277e+06 5.4459e+06 3.83667e+06 3.4893e+06 3.43224e+06 3.08649e+06 2.52397e+06 2.11707e+06 1.65702e+06 1.63297e+06 1.28085e+06 3.01382e+06 1.1541e+06 1.08891e+06 1.04372e+06 978429 973451 875776 858420 816550 794526 781028 731254 730799 690132 685957 625576 570109 526031 525925 516329 471590 442343 418253 411118 399153 416023 388961 353764 339725 334277 333214 330112 321212 313169 304038 300928 300006 271497 260976 324076 270303 254292 320943 247183
threshold=7.9150000000000009 2.5650000000000004 13.145000000000001 4.4050000000000011 1.2950000000000002 20.195000000000004 1.0000000180025095e-35 10.105000000000002 352.50000000000006 1.8450000000000004 5.8050000000000006 15.765000000000002 3.2850000000000006 132.50000000000003 0.84500000000000008 1.0000000180025095e-35 352.50000000000006 1.0000000180025095e-35 1.0000000180025095e-35 352.50000000000006 1.0000000180025095e-35 352.50000000000006 11.355000000000002 1.0000000180025095e-35 352.50000000000006 1.0000000180025095e-35 1.0000000180025095e-35 160.50000000000003 1.0000000180025095e-35 8.8050000000000015 2.0000000000000004 352.50000000000006 264.50000000000006 352.50000000000006 1.0000000180025095e-35 263.50000000000006 352.50000000000006 6.7950000000000008 1.0000000180025095e-35 1.0000000180025095e-35 352.50000000000006 352.50000000000006 226.50000000000003 212.50000000000003 352.50000000000006 339.50000000000006 352.50000000000006 339.50000000000006 248.50000000000003 3.8050000000000002 352.50000000000006 1.0000000180025095e-35 1.0000000180025095e-35 2.2650000000000001 352.50000000000006 1.0000000180025095e-35 0.59500000000000008 0.25500000000000006 1.0000000180025095e-35 1.0000000180025095e-35 1.0000000180025095e-35 15.765000000000002
decision_type=2 2 2 2 2 2 2 2 2 2 2 2 2 2 2 2 2 2 2 2 2 2 2 2 2 2 2 2 2 2 2 2 2 2 2 2 2 2 2 2 2 2 2 2 2 2 2 2 2 2 2 2 2 2 2 2 2 2 2 2 2 2
left_child=1 4 7 12 14 8 13 19 11 28 31 26 25 15 30 -7 22 18 35 29 44 59 55 40 37 46 34 -20 50 -2 -1 38 54 -17 -4 -13 39 -12 -5 -16 49 -22 43 -15 53 -30 -3 -27 -25 -14 -6 -31 -24 -11 56 -9 57 58 -32 60 -8 -10
right_child=2 3 5 10 9 6 21 16 61 20 24 17 23 42 36 33 -18 -19 27 -21 41 -23 52 48 -26 47 -28 -29 45 51 32 -33 -34 -35 -36 -37 -38 -39 -40 -41 -42 -43 -44 -45 -46 -47 -48 -49 -50 -51 -52 -53 -54 -55 -56 -57 -58 -59 -60 -61 -62 -63
leaf_value=2.8343850885422821 0.41392070362420103 -0.054007692105606291 1.3343258354829115 0.19545786580360744 -0.19447326374395155 2.8310200338134059 1.6496039917508094 0.58686802062440313 1.5010652348771258 -0.14256458079998127 0.26081410713692832 1.7567282523784158 0.010493023734102746 2.6502123554522541 -0.2530163693863402 1.7497840813416787 1.1533481888941897 1.1844604745271043 1.1660756111306509 0.83781433592738586 -0.07333814304932193 2.054663353244524 0.71233790964414423 0.091791056625546444 0.59545600433006141 0.0081949000952328179 0.89482370480645401 1.9739354458776284 -0.15434403037807781 0.48329779805103057 -0.24380860406779747 0.4057922910021865 1.9748874694920699 2.5648299920228563 1.0284062348761356 1.2509240368404664 -0.13231561961238003 0.34096452054917886 0.1279745092709236 -0.2183075579741022 0.22455163523727523 0.079722611931961618 2.2180990978973081 4.1868014289251612 0.0096929737771387151 -0.065447892271386837 0.11167866822772883 0.14355557558567181 0.17588579185399283 0.063236758141119009 -0.080241467796587571 0.56972795392729914 0.82370300662596974 -0.10383012082494325 -0.20892266576315244 0.67947230137508496 -0.28265031856514938 -0.32026821641997638 0.087493323687740682 1.2155292406257323 1.3569708298388308 1.8298245674402562
leaf_weight=187 284030 1336758 19736 549684 2531068 4000 10286 193467 6972 1395493 434454 38618 679699 10023 2242156 60521 18991 721372 93565 22797 1269056 5457 161318 375816 25506 663822 114908 3146 1566987 270764 73788 30290 334 2450 66721 5931 119595 373838 489370 1554305 29348 45442 6464 461 52024 120523 31671 48975 171572 526421 63074 171006 98850 782653 108047 133962 1958530 1047737 6717 28207 105459 31867
leaf_count=187 284030 1336758 19736 549684 2531068 4000 10286 193467 6972 1395493 434454 38618 679699 10023 2242156 60521 18991 721372 93565 22797 1269056 5457 161318 375816 25506 663822 114908 3146 1566987 270764 73788 30290 334 2450 66721 5931 119595 373838 489370 1554305 29348 45442 6464 461 52024 120523 31671 48975 171572 526421 63074 171006 98850 782653 108047 133962 1958530 1047737 6717 28207 105459 31867
internal_value=-6.40768e-05 -0.119427 0.918212 0.0856254 -0.198595 1.25993 1.59394 0.58129 1.18926 -0.142619 0.230316 1.16803 0.0143624 1.98214 -0.260197 1.84419 0.697018 1.21142 1.34911 0.487515 -0.104143 1.3759 0.682269 0.0626439 0.306987 -0.0269974 0.982163 1.19236 -0.174472 0.476512 -0.290398 0.170533 -0.290581 1.7815 1.09824 1.68939 -0.235554 0.297884 0.163675 -0.238806 0.0380515 -0.0680468 2.52724 2.71782 -0.125419 -0.147995 -0.050173 0.0174953 0.11815 0.0335135 -0.191696 0.516754 0.754651 -0.128646 -0.290818 0.624756 -0.293685 -0.31284 -0.216166 1.35017 1.38298 1.77081
internal_weight=2.33963e+07 2.07049e+07 2.69135e+06 5.76722e+06 1.49377e+07 1.33616e+06 233328 1.35518e+06 1.10284e+06 7.82632e+06 1.90314e+06 1.064e+06 3.86408e+06 83919 7.1114e+06 66971 606588 862632 141260 748597 3.54467e+06 149409 587597 1.78286e+06 833798 2.08123e+06 201365 96711 4.28165e+06 725800 3.19534e+06 1.06934e+06 3.19515e+06 62971 86457 44549 3.91606e+06 808292 1.03905e+06 3.79646e+06 1.23547e+06 1.3145e+06 16948 10484 2.23017e+06 1.68751e+06 1.36843e+06 712797 547388 1.20612e+06 2.59414e+06 441770 260168 2.17815e+06 3.19482e+06 327429 3.08677e+06 1.12824e+06 80505 143952 115745 38839
internal_count=23396289 20704940 2691349 5767224 14937716 1336164 233328 1355185 1102836 7826320 1903142 1063997 3864082 83919 7111396 66971 606588 862632 141260 748597 3544668 149409 587597 1782856 833798 2081226 201365 96711 4281652 725800 3195340 1069344 3195153 62971 86457 44549 3916056 808292 1039054 3796461 1235468 1314498 16948 10484 2230170 1687510 1368429 712797 547388 1206120 2594142 441770 260168 2178146 3194819 327429 3086772 1128242 80505 143952 115745 38839
is_linear=0
shrinkage=0.05


Tree=10
num_leaves=63
num_cat=0
split_feature=19 19 19 19 19 19 17 19 7 19 19 19 0 19 15 19 13 7 17 7 12 19 7 12 13 12 19 19 7 0 0 7 7 7 7 12 12 17 0 0 0 7 15 7 7 7 7 7 49 12 12 7 43 43 12 43 12 0 12 17 7 42
split_gain=9.26141e+08 1.33589e+08 9.65716e+07 2.58487e+07 1.88067e+07 1.05885e+07 7.09292e+06 4.9385e+06 4.76795e+06 4.37676e+06 3.19854e+06 2.84792e+06 2.30452e+06 1.98262e+06 2.32565e+06 1.90874e+06 1.56866e+06 1.41489e+06 1.36457e+06 1.06308e+06 968195 962870 944597 916943 860498 852977 780545 683166 663228 656846 624322 620726 592348 570268 551134 536011 523329 480124 442451 402124 406583 384973 379668 374709 341416 337343 331444 330947 328400 327992 324776 312392 303495 290291 261457 257560 256573 254736 241839 227056 222087 219400
threshold=8.4950000000000028 2.9450000000000007 13.775 1.5850000000000002 5.205000000000001 20.195000000000004 1.0000000180025095e-35 11.105000000000002 352.50000000000006 1.0650000000000002 2.2450000000000006 3.9650000000000003 132.50000000000003 16.225000000000005 1.0000000180025095e-35 6.6550000000000011 1.0000000180025095e-35 352.50000000000006 1.0000000180025095e-35 352.50000000000006 1.0000000180025095e-35 9.9050000000000029 352.50000000000006 1.0000000180025095e-35 1.0000000180025095e-35 1.0000000180025095e-35 0.76500000000000012 12.645000000000001 352.50000000000006 2.0000000000000004 264.50000000000006 352.50000000000006 352.50000000000006 352.50000000000006 352.50000000000006 1.0000000180025095e-35 1.0000000180025095e-35 1.0000000180025095e-35 263.50000000000006 226.50000000000003 212.50000000000003 248.50000000000003 1.0000000180025095e-35 352.50000000000006 339.50000000000006 248.50000000000003 352.50000000000006 352.50000000000006 1.0000000180025095e-35 1.0000000180025095e-35 1.0000000180025095e-35 352.50000000000006 3.1850000000000005 1.8650000000000004 1.0000000180025095e-35 1.2750000000000001 1.0000000180025095e-35 264.50000000000006 1.0000000180025095e-35 1.0000000180025095e-35 151.50000000000003 17.410000000000004
decision_type=2 2 2 2 2 2 2 2 2 2 2 2 2 2 2 2 2 2 2 2 2 2 2 2 2 2 2 2 2 2 2 2 2 2 2 2 2 2 2 2 2 2 2 2 2 2 2 2 2 2 2 2 2 2 2 2 2 2 2 2 2 2
left_child=1 3 7 9 11 8 12 17 13 26 23 20 16 24 18 33 -7 21 38 27 43 49 42 47 37 46 29 56 48 -1 -31 36 35 50 60 55 -13 -4 -15 40 -14 -25 -8 52 -22 -27 61 53 -17 -2 -6 54 -3 -5 -28 -11 -9 58 -23 -29 -18 -12
right_child=2 4 5 10 15 6 22 19 -10 32 25 31 39 14 -16 28 34 -19 -20 -21 44 57 -24 41 -26 45 51 59 -30 30 -32 -33 -34 -35 -36 -37 -38 -39 -40 -41 -42 -43 -44 -45 -46 -47 -48 -49 -50 -51 -52 -53 -54 -55 -56 -57 -58 -59 -60 -61 -62 -63
leaf_value=2.6727070093187586 0.43505561734906983 -0.016389956110307479 1.3292472730998597 -0.15950199395976578 0.1989321341997885 2.71382106982928 1.5767911173165901 0.64478414721478461 1.6974558777414572 -0.22015165700274567 -0.12621787475830912 0.09369016578268935 2.5282410828590418 1.6819257826235274 1.1312333790883429 0.37085272701147209 1.5342319532142872 0.89073728955860154 1.1540111960948123 1.199072865455493 0.06485740249371412 0.54082886922682027 1.9548499554535501 -0.11631547027545204 0.89189492778398582 -0.040236976223445763 -0.25937538563732876 1.0172589726614121 0.63220640140332163 -0.28235449133779417 1.9363772505523653 0.32988203131092292 -0.087275584592877209 0.47530277234152057 2.4236148663284887 -0.1748008038026182 0.1662423617235437 1.0398169814118505 1.2011600007992265 2.0939465179023951 4.0243882534033713 -0.063300049990847193 1.2607560859851337 0.16917953357769572 0.20698692183920159 0.024992173400879003 0.065206532780915982 -0.031865367831567772 0.29656226504919592 0.5193231642306414 0.27128060086611305 -0.14749482246777232 0.038053386508912851 -0.11757702915463304 -0.22716359233283068 -0.18296021728274603 0.74594336113062243 2.6362129745812597 0.62689573322565706 0.80626772976487338 1.7332021782797804 -0.075288317785723535
leaf_weight=188 303462 1024900 18159 1963317 527792 3980 10235 161810 37293 1923333 249975 864331 9970 35656 747583 319867 22133 25406 25869 12261 616435 200359 5435 1068251 115168 626745 1505812 15103 19556 2464904 317 34418 127593 22568 2462 1689465 348874 67964 5529 6439 476 503973 133261 32427 45362 289890 38550 60018 278090 186414 219688 83245 341194 522840 1083075 614169 102331 150 137738 81948 38336 1372659
leaf_count=188 303462 1024900 18159 1963317 527792 3980 10235 161810 37293 1923333 249975 864331 9970 35656 747583 319867 22133 25406 25869 12261 616435 200359 5435 1068251 115168 626745 1505812 15103 19556 2464904 317 34418 127593 22568 2462 1689465 348874 67964 5529 6439 476 503973 133261 32427 45362 289890 38550 60018 278090 186414 219688 83245 341194 522840 1083075 614169 102331 150 137738 81948 38336 1372659
internal_value=3.62565e-07 -0.109123 0.906871 -0.177229 0.125684 1.20964 1.51486 0.589551 1.1422 -0.230296 -0.102006 0.0608754 1.88286 1.12181 1.15654 0.280187 1.75113 0.523199 1.43862 0.741201 0.0247735 0.511923 1.30781 -0.129345 0.981295 -0.0583269 -0.261554 0.725657 0.345674 -0.281844 -0.282069 0.120494 -0.193418 0.227672 1.69024 -0.196622 0.114554 1.10084 1.61739 2.40484 2.59646 -0.0993215 1.2833 0.00119521 0.0745995 -0.019608 -0.0796918 -0.147884 0.336303 0.467122 0.220196 -0.242834 -0.00279225 -0.150685 -0.245899 -0.21115 0.683975 0.576806 0.575892 0.839103 1.66038 -0.0831343
internal_weight=2.33968e+07 2.08838e+07 2.51293e+06 1.61883e+07 4.6955e+06 1.28595e+06 232727 1.22698e+06 1.05322e+06 9.4921e+06 6.69622e+06 3.30794e+06 83796 1.01593e+06 814637 1.38756e+06 66911 853529 67054 373453 2.06032e+06 828123 148931 4.1184e+06 201291 2.57782e+06 5.13754e+06 361192 617513 2.46541e+06 2.46522e+06 1.24762e+06 4.35456e+06 770048 62931 4.22697e+06 1.2132e+06 86123 41185 16885 10446 1.57222e+06 143496 1.39852e+06 661797 916635 1.66118e+06 2.54618e+06 597957 489876 747480 2.67213e+06 1.36609e+06 2.48616e+06 2.58889e+06 2.5375e+06 264141 338247 338097 97051 60469 1.62263e+06
internal_count=23396751 20883821 2512930 16188319 4695502 1285948 232727 1226982 1053221 9492101 6696218 3307941 83796 1015928 814637 1387561 66911 853529 67054 373453 2060318 828123 148931 4118399 201291 2577819 5137541 361192 617513 2465409 2465221 1247623 4354560 770048 62931 4226967 1213205 86123 41185 16885 10446 1572224 143496 1398521 661797 916635 1661184 2546175 597957 489876 747480 2672132 1366094 2486157 2588887 2537502 264141 338247 338097 97051 60469 1622634
is_linear=0
shrinkage=0.05


Tree=11
num_leaves=63
num_cat=0
split_feature=19 19 19 1 19 19 1 19 19 19 19 55 19 19 19 19 5 1 1 13 19 49 19 19 49 0 49 1 1 0 0 0 1 5 1 13 1 49 5 19 5 49 1 5 5 5 5 55 55 49 49 50 1 13 1 19 1 13 1 19 19 19
split_gain=8.36149e+08 1.06648e+08 1.05023e+08 2.83675e+07 1.85991e+07 1.65372e+07 1.01499e+07 9.13744e+06 5.22257e+06 3.99219e+06 2.75178e+06 2.7e+06 2.52139e+06 2.38966e+06 2.14356e+06 1.81962e+06 1.77549e+06 949165 908595 897535 869277 818500 751168 699112 684127 627279 623582 621964 842796 620736 523642 512337 491013 480085 469564 761166 456298 455520 430734 427643 408691 392074 386073 376417 371088 368008 352464 387030 348409 347396 345627 331454 320940 304517 290060 285829 272546 313016 268973 267909 266565 261122
threshold=7.745000000000001 2.5350000000000006 13.145000000000001 264.50000000000006 4.3250000000000011 1.3450000000000004 2.0000000000000004 20.195000000000004 10.105000000000002 15.765000000000002 5.6050000000000013 0.97690230611205509 1.8650000000000004 3.2450000000000006 0.88500000000000012 20.195000000000004 11.500000000000002 264.50000000000006 264.50000000000006 1.0000000180025095e-35 11.615 1.0000000180025095e-35 8.8050000000000015 20.195000000000004 1.0000000180025095e-35 264.50000000000006 1.0000000180025095e-35 228.50000000000003 166.50000000000003 2.0000000000000004 137.50000000000003 132.50000000000003 86.500000000000014 11.500000000000002 264.50000000000006 1.0000000180025095e-35 2.0000000000000004 -1.0000000180025095e-35 11.500000000000002 6.6550000000000011 11.500000000000002 0.25881904510252057 264.50000000000006 11.500000000000002 8.5000000000000018 8.5000000000000018 11.500000000000002 0.97690230611205509 0.97690230611205509 0.1294095225512602 0.25881904510252057 1.0000000180025095e-35 264.50000000000006 1.0000000180025095e-35 2.0000000000000004 0.64500000000000013 264.50000000000006 1.0000000180025095e-35 264.50000000000006 18.255000000000006 17.715000000000003 0.25500000000000006
decision_type=2 2 2 2 2 2 2 2 2 2 2 2 2 2 2 2 2 2 2 2 2 2 2 2 2 2 2 2 2 2 2 2 2 2 2 2 2 2 2 2 2 2 2 2 2 2 2 2 2 2 2 2 2 2 2 2 2 2 2 2 2 2
left_child=1 5 8 6 13 14 15 59 22 49 17 23 33 26 25 60 -13 37 21 -17 42 44 56 -11 38 29 45 28 32 -1 -21 -9 -25 41 39 -36 -22 -6 51 -12 50 -7 46 58 -15 -3 54 -48 -45 -8 -16 -14 -38 -44 -10 61 -2 -58 -24 -5 -4 -31
right_child=2 4 3 7 10 12 9 31 20 11 34 16 24 18 40 19 -18 -19 -20 30 36 -23 43 27 -26 -27 -28 -29 -30 55 -32 -33 -34 -35 35 -37 52 -39 -40 -41 -42 -43 53 48 -46 -47 47 -49 -50 -51 -52 -53 -54 -55 -56 -57 57 -59 -60 -61 -62 -63
leaf_value=2.5596635720277754 0.37571530737268277 -0.023697511239438619 1.5335356992821925 1.3908478288649837 0.17284544560218681 -0.14896807431115619 0.90663532417558435 3.1990024727161073 2.7634444114428849 1.064523796324979 0.23048954245930009 1.0744848967541463 -0.10317946359417995 0.059779021852420393 -0.20371698830444551 2.0340374414665967 1.6396722776150137 1.0808081712902671 1.1976145628346564 3.6208002182320609 1.4927348282706023 0.012071440075384673 0.45970832626286606 1.3375666827119899 -0.12456365123772802 1.8292966972715972 -0.061197608758208871 1.0339766128028778 1.5192226437455529 -0.19005828390444521 2.3222838121934042 2.7176356402278294 1.1060054639378274 -0.094596684327393515 1.441777882628327 0.28886788561360305 0.69625386633094144 0.10669100947943831 -0.0026555417714965112 0.30064437155314522 -0.15648999674274033 -0.18747618698256707 1.8646007544233218 0.52062313933054083 0.1248138469559834 0.033270501531182689 0.61599376061647204 0.96481350946299682 0.83030737979439828 0.76619094443454061 -0.23921269268861656 -0.062466722874877305 1.2177271106842771 0.75722995551448913 0.56494097394338572 -0.24738104212895129 1.7070519265755892 0.49918428704657292 1.0211943095360645 1.8705843282388881 1.7783959865389627 -0.28101616913383604
leaf_weight=195 344890 870053 30085 12216 554377 2623160 122358 16436 150 801407 505533 22021 1061633 673367 2953582 6097 37663 2698 1730 1832 1848 758663 411534 32767 1187628 359 805677 56893 21373 83260 1349 8338 76000 318922 2209 4068 208480 490398 177067 380893 363453 883683 1022 28181 325312 420499 24403 11797 13402 68792 893197 944859 2993 1582 354111 1855441 815 1569 2144 3822 17639 1508826
leaf_count=195 344890 870053 30085 12216 554377 2623160 122358 16436 150 801407 505533 22021 1061633 673367 2953582 6097 37663 2698 1730 1832 1848 758663 411534 32767 1187628 359 805677 56893 21373 83260 1349 8338 76000 318922 2209 4068 208480 490398 177067 380893 363453 883683 1022 28181 325312 420499 24403 11797 13402 68792 893197 944859 2993 1582 354111 1855441 815 1569 2144 3822 17639 1508826
internal_value=3.55485e-07 -0.108997 0.819693 1.13711 0.0729199 -0.179969 1.09624 2.43505 0.518463 1.06623 0.199184 1.10456 -0.125549 0.00937759 -0.23111 1.74861 1.43114 0.144213 0.0523497 2.38933 0.629208 0.0512222 0.434785 1.08484 -0.0940222 -0.26034 -0.0266829 1.17189 1.23217 -0.260558 3.07022 3.037 1.17577 -0.15333 0.263686 0.694617 0.710472 0.141794 -0.0774109 0.260635 -0.20717 -0.158672 0.585106 0.477034 0.0809636 -0.00513569 0.581059 0.729671 0.620435 0.856092 -0.211959 -0.0840078 0.703635 1.1919 0.565873 -0.260717 0.379398 0.912165 0.462619 1.50518 1.62404 -0.276259
internal_weight=2.33968e+07 2.06507e+07 2.74601e+06 1.33709e+06 5.79548e+06 1.48553e+07 1.29628e+06 40812 1.40892e+06 1.23927e+06 1.94018e+06 1.04812e+06 7.19695e+06 3.8553e+06 7.65831e+06 57002 59684 1.04747e+06 1.75907e+06 9278 606386 1.75734e+06 802535 988440 3.37119e+06 3.44808e+06 2.09623e+06 187033 130140 3.44772e+06 3181 24774 108767 3.82576e+06 892703 6277 213321 1.04478e+06 2.18356e+06 886426 4.21023e+06 3.50684e+06 393065 455261 998679 1.29055e+06 390461 36200 41583 191150 3.84678e+06 2.00649e+06 211473 2604 354261 3.44753e+06 347274 2384 413678 16038 47724 1.59209e+06
internal_count=23396751 20650742 2746009 1337088 5795477 14855265 1296276 40812 1408921 1239274 1940176 1048124 7196952 3855301 7658313 57002 59684 1047473 1759072 9278 606386 1757342 802535 988440 3371187 3448081 2096229 187033 130140 3447722 3181 24774 108767 3825765 892703 6277 213321 1044775 2183559 886426 4210232 3506843 393065 455261 998679 1290552 390461 36200 41583 191150 3846779 2006492 211473 2604 354261 3447527 347274 2384 413678 16038 47724 1592086
is_linear=0
shrinkage=0.05


Tree=12
num_leaves=63
num_cat=0
split_feature=19 19 19 1 19 19 1 19 19 7 19 19 19 19 19 19 7 7 1 19 1 12 13 1 12 7 1 12 19 19 1 1 1 0 12 7 14 0 0 7 1 1 13 19 7 12 7 7 12 13 7 1 13 1 7 7 7 12 7 1 13 12
split_gain=7.54625e+08 9.63295e+07 9.48594e+07 2.58656e+07 1.77343e+07 1.41365e+07 8.90207e+06 7.53473e+06 5.91539e+06 4.39508e+06 2.6517e+06 2.49567e+06 2.26724e+06 2.23432e+06 1.57157e+06 1.50867e+06 1.20637e+06 1.1314e+06 989244 957206 867947 854900 810038 807636 807044 763949 720197 656314 617215 586390 580977 780616 560656 524325 522372 501531 499868 484065 462382 456735 452657 436022 687758 418121 387091 380222 358220 332513 324274 322408 315784 305036 343945 295842 289987 285582 278256 276551 274118 272394 310129 265641
threshold=7.745000000000001 2.4950000000000006 13.775 264.50000000000006 4.285000000000001 1.2850000000000004 2.0000000000000004 20.195000000000004 10.505000000000001 352.50000000000006 5.5050000000000008 1.7650000000000003 3.1850000000000005 16.225000000000005 20.195000000000004 0.8650000000000001 352.50000000000006 352.50000000000006 2.0000000000000004 9.1150000000000002 264.50000000000006 1.0000000180025095e-35 1.0000000180025095e-35 264.50000000000006 1.0000000180025095e-35 352.50000000000006 264.50000000000006 1.0000000180025095e-35 12.225000000000003 20.195000000000004 228.50000000000003 166.50000000000003 2.0000000000000004 264.50000000000006 1.0000000180025095e-35 352.50000000000006 1.0000000180025095e-35 160.50000000000003 132.50000000000003 352.50000000000006 86.500000000000014 264.50000000000006 1.0000000180025095e-35 6.5050000000000008 352.50000000000006 1.0000000180025095e-35 352.50000000000006 352.50000000000006 1.0000000180025095e-35 1.0000000180025095e-35 352.50000000000006 264.50000000000006 1.0000000180025095e-35 137.50000000000003 352.50000000000006 352.50000000000006 352.50000000000006 1.0000000180025095e-35 352.50000000000006 264.50000000000006 1.0000000180025095e-35 1.0000000180025095e-35
decision_type=2 2 2 2 2 2 2 2 2 2 2 2 2 2 2 2 2 2 2 2 2 2 2 2 2 2 2 2 2 2 2 2 2 2 2 2 2 2 2 2 2 2 2 2 2 2 2 2 2 2 2 2 2 2 2 2 2 2 2 2 2 2
left_child=1 5 8 6 12 15 14 -5 17 13 20 34 27 36 39 32 18 19 -10 51 35 50 -16 24 47 41 28 58 57 -15 31 40 -1 56 -7 45 -8 -24 -9 -4 -31 43 -43 -12 48 -6 -23 -14 -17 -28 -13 -2 -53 -38 -26 -29 -34 -20 -3 61 -61 -21
right_child=2 4 3 7 10 11 9 38 16 -11 25 21 23 29 22 44 -18 -19 26 59 -22 46 37 -25 54 -27 49 55 -30 30 -32 -33 33 -35 -36 -37 53 -39 -40 -41 -42 42 -44 -45 -46 -47 -48 -49 -50 -51 -52 52 -54 -55 -56 -57 -58 -59 -60 60 -62 -63
leaf_value=2.3722409625892245 0.36094558974466884 -0.054264151513451958 1.5243452646220048 1.4496259533263078 0.10415054080390243 -0.1692231873659637 0.80543625857531098 3.0390533171060081 1.371578936208588 1.5229373921099356 0.20482831840884647 -0.1179683451078565 0.017552333134025478 1.0161962617431153 1.9323372560422485 -0.217240396890994 1.049566640120309 0.73773680863529112 0.5389070835455726 0.4337841415510888 1.0473793187928535 -0.070950254807187724 3.1950154107841318 1.1423354983271474 0.085877732875981008 0.50098304199885291 1.6258007634677334 0.0013444916563566513 0.69748943497803395 1.2710393025070976 0.98229897566066959 1.4439577060279081 -0.25132548476277417 1.7175868070115035 -0.13120045185014947 0.3338297330808051 1.0852284129143266 1.5491776907915877 2.5817554843100443 2.3687158688443213 1.0512713248557506 1.3537347000539124 0.26129439170910013 0.2725141650429172 -0.1109726499716486 0.17173127934177815 0.066068716758968263 0.18609502256927729 -0.18678462625023978 0.87709420362313217 0.0025416579050866373 1.627146153736704 0.48077553141863438 0.73359316133422414 0.27887458720095465 0.17026238749032455 -0.17120892341845695 0.62753834056621871 0.092498780982307294 1.7973093644358711 0.59469231216261564 0.5123032619760769
leaf_weight=204 440561 1372206 43533 14486 726512 2285253 148933 16436 4360 42479 493807 2328208 1251983 773159 6097 2134861 17008 28280 219371 272616 2581 1375176 2643 1674 559346 28676 2267 717425 141277 33599 58260 21972 3208330 339 1493749 29157 28813 538 8338 1663 77449 2253 3996 424141 113443 291692 49415 29964 1479861 3933 55660 998 1900 7550 20165 25926 112168 146994 32571 807 1597 178092
leaf_count=204 440561 1372206 43533 14486 726512 2285253 148933 16436 4360 42479 493807 2328208 1251983 773159 6097 2134861 17008 28280 219371 272616 2581 1375176 2643 1674 559346 28676 2267 717425 141277 33599 58260 21972 3208330 339 1493749 29157 28813 538 8338 1663 77449 2253 3996 424141 113443 291692 49415 29964 1479861 3933 55660 998 1900 7550 20165 25926 112168 146994 32571 807 1597 178092
internal_value=3.49267e-07 -0.103547 0.778708 1.09184 0.064921 -0.17277 1.05205 2.35548 0.502914 1.02349 0.186431 -0.125406 0.00425121 1.00504 1.67711 -0.223749 0.635211 0.426354 0.621611 0.416532 0.131623 -0.0968417 2.26986 0.0446145 0.0436273 0.246823 0.615247 -0.030757 0.608705 1.03559 1.11398 1.17165 -0.248257 -0.248418 -0.154194 0.129366 0.846017 2.91672 2.88516 1.55542 1.11777 0.238936 0.655176 0.236103 -0.201918 0.123511 -0.0661974 0.0214918 -0.204772 1.15088 -0.115155 0.364309 0.875602 1.01222 0.0925934 0.0072359 -0.248619 0.574468 -0.0508613 0.467642 0.998459 0.46481
internal_weight=2.33968e+07 2.06507e+07 2.74601e+06 1.28595e+06 6.01408e+06 1.46367e+07 1.24669e+06 39260 1.46006e+06 1.19221e+06 2.00282e+06 7.58746e+06 4.01126e+06 1.14974e+06 54474 7.04921e+06 535210 924851 518202 896571 1.04994e+06 3.80846e+06 9278 1.86313e+06 1.86146e+06 952873 513842 2.14813e+06 507642 964439 191280 133020 3.32104e+06 3.32084e+06 3.779e+06 1.04736e+06 185296 3181 24774 45196 111048 924197 6249 917948 3.72816e+06 1.0182e+06 1.42459e+06 1.28195e+06 3.61472e+06 6200 2.38387e+06 443459 2898 36363 579511 743351 3.3205e+06 366365 1.40478e+06 453112 2404 450708
internal_count=23396751 20650742 2746009 1285948 6014075 14636667 1246688 39260 1460061 1192214 2002815 7587461 4011260 1149735 54474 7049206 535210 924851 518202 896571 1049942 3808459 9278 1863132 1861458 952873 513842 2148128 507642 964439 191280 133020 3321041 3320837 3779002 1047361 185296 3181 24774 45196 111048 924197 6249 917948 3728165 1018204 1424591 1281947 3614722 6200 2383868 443459 2898 36363 579511 743351 3320498 366365 1404777 453112 2404 450708
is_linear=0
shrinkage=0.05


Tree=13
num_leaves=63
num_cat=0
split_feature=42 42 42 48 3 1 49 1 3 13 42 3 3 3 42 3 0 42 42 1 42 42 3 42 42 42 7 1 43 43 42 43 3 42 3 42 1 3 3 7 43 42 13 3 49 42 0 42 3 7 0 3 48 42 42 3 42 1 1 42 1 42
split_gain=5.55398e+08 6.76412e+07 5.46153e+07 3.14084e+07 2.18319e+07 1.97403e+07 1.0191e+07 9.26421e+06 9.25076e+06 1.43385e+07 1.08315e+07 6.95991e+06 5.96803e+06 5.21584e+06 1.17027e+07 5.06506e+06 4.63336e+06 4.42591e+06 4.13017e+06 3.71626e+06 3.37632e+06 3.11366e+06 3.02958e+06 2.60027e+06 2.16432e+06 1.99539e+06 1.94731e+06 1.88132e+06 1.63928e+06 1.57698e+06 1.34535e+06 1.33959e+06 1.31402e+06 1.28526e+06 1.22668e+06 1.15536e+06 1.1237e+06 1.01691e+06 1.01338e+06 985821 921908 903461 901784 856365 821247 2.34272e+06 820796 805297 944834 772322 767097 711963 705269 741698 667007 904727 643200 619140 652066 601784 565906 551507
threshold=95.530000000000015 195.50500000000002 38.285000000000004 0.25881904510252091 12.500000000000002 264.50000000000006 -1.0000000180025095e-35 2.0000000000000004 4.5000000000000009 1.0000000180025095e-35 17.825000000000003 5.5000000000000009 15.500000000000002 18.500000000000004 312.98500000000007 18.500000000000004 137.50000000000003 7.2850000000000019 60.815000000000012 264.50000000000006 56.175000000000004 132.62000000000003 9.5000000000000018 150.41000000000003 58.895000000000003 25.510000000000002 352.50000000000006 264.50000000000006 1.4450000000000001 20.190000000000001 132.62000000000003 1.1950000000000001 1.5000000000000002 15.395000000000003 8.5000000000000018 59.790000000000006 2.0000000000000004 3.5000000000000004 1.5000000000000002 352.50000000000006 20.190000000000001 3.4750000000000005 1.0000000180025095e-35 1.0000000180025095e-35 -0.60355339059327384 382.73000000000008 160.50000000000003 9.8050000000000015 16.500000000000004 352.50000000000006 160.50000000000003 12.500000000000002 -0.91597561503675329 166.51000000000002 114.68000000000002 7.5000000000000009 16.220000000000002 226.50000000000003 189.50000000000003 73.805000000000021 42.500000000000007 268.01000000000005
decision_type=2 2 2 2 2 2 2 2 2 2 2 2 2 2 2 2 2 2 2 2 2 2 2 2 2 2 2 2 2 2 2 2 2 2 2 2 2 2 2 2 2 2 2 2 2 2 2 2 2 2 2 2 2 2 2 2 2 2 2 2 2 2
left_child=2 3 8 6 11 7 21 42 9 17 31 35 25 26 61 20 57 27 -13 22 -6 -2 36 -24 -17 -12 -9 38 -14 44 -8 47 56 -34 -20 37 -5 -4 41 -16 -21 43 -3 60 -7 -46 -18 -10 -49 52 -44 -27 -23 -54 55 -38 -19 58 -11 -22 -1 -15
right_child=1 5 4 19 15 29 30 13 10 16 12 18 28 14 39 24 46 32 34 40 59 49 23 -25 -26 51 -28 -29 -30 -31 -32 -33 33 -35 -36 -37 54 -39 -40 -41 -42 -43 50 -45 45 -47 -48 48 -50 -51 -52 -53 53 -55 -56 -57 -58 -59 -60 -61 -62 -63
leaf_value=0.11523395570502126 0.35284412289109324 1.5826339870502768 1.0656298271939157 1.4420557977786996 0.0075987291222402199 2.3315045822684732 0.13010438937582144 0.94706949184246825 -0.2302051071696406 0.71301562917533523 -0.09657649907121274 0.14292030601978031 -0.17732935582155498 0.45350130639557718 0.94612160713233484 -0.094448054794023892 0.31521494560326024 0.39994497768943349 0.51776984716119467 1.5530225371748114 0.10863464017981826 0.44564536623497919 0.53379463011814299 0.96703797203555952 0.0067172085310811015 0.014978364325016534 1.4294457184059119 1.52349614170736 -0.10850419752074991 2.8764068083380989 0.26989314909819784 -0.13836623435599502 -0.0057699391862114872 0.24664342037426154 0.30953461511087221 0.99447777193042564 0.96852257231171723 0.42742346828145528 -0.19133433146814102 1.4434644224230944 2.737220640190277 0.062063208790168946 3.0230408825333495 -0.17618330653549663 1.2011474071257326 2.419239522648803 -0.068018874998139439 -0.17452666645245019 -0.22948988582479168 0.95039252896990267 1.7183212199106326 -0.053845088142642106 0.53826491718442526 0.725056508234866 0.98885439053256052 0.60718548600968192 1.4892492267383393 0.98560163736037465 0.26910927065871521 0.19996260038014507 -0.081525395328186478 0.64355835993149846
leaf_weight=39322 349977 31690 8132 10924 1143788 10093 372446 586748 2312169 52030 1852166 464056 2478171 192039 278410 1201023 27404 24048 102646 4738 476591 120973 116929 49209 944417 760206 21696 1759 1329217 6025 320006 802911 144617 77436 227410 31144 36357 26852 307804 10334 2517 92071 2145 269691 8683 7238 28504 2414011 1156490 12146 2374 743078 185471 74489 127822 33092 1436 16690 9837 290208 517205 47640
leaf_count=39322 349977 31690 8132 10924 1143788 10093 372446 586748 2312169 52030 1852166 464056 2478171 192039 278410 1201023 27404 24048 102646 4738 476591 120973 116929 49209 944417 760206 21696 1759 1329217 6025 320006 802911 144617 77436 227410 31144 36357 26852 307804 10334 2517 92071 2145 269691 8683 7238 28504 2414011 1156490 12146 2374 743078 185471 74489 127822 33092 1436 16690 9837 290208 517205 47640
internal_value=3.42982e-07 0.632523 -0.0938234 0.439886 0.0513362 0.922984 0.33271 0.88954 -0.139989 -0.0265443 -0.153177 0.280127 -0.110456 0.864464 0.749543 0.0028121 0.46774 -0.0715927 0.239086 0.843076 0.0620209 0.461316 0.821353 0.662119 -0.0499154 -0.0618397 0.96427 -0.110476 -0.153301 2.14747 0.194706 -0.198948 0.12128 0.0822536 0.374295 0.772972 0.94842 0.575777 -0.112821 0.963922 1.96389 -0.0865032 1.67687 -0.103059 1.97864 1.75493 0.119828 -0.207216 -0.192329 0.557893 2.33768 -0.0190413 0.545378 0.591789 0.921084 0.796349 0.461332 0.715344 0.642434 0.143199 -0.0676231 0.491278
internal_weight=2.33968e+07 3.02221e+06 2.03745e+07 1.8171e+06 4.91627e+06 1.20512e+06 1.43551e+06 1.17308e+06 1.54583e+07 1.60985e+06 1.38484e+07 860240 7.16284e+06 1.13687e+06 528423 4.05603e+06 134465 1.47539e+06 794112 381588 1.91059e+06 743056 374333 166138 2.14544e+06 3.35545e+06 608444 1.22785e+06 3.80739e+06 32039 692452 6.68558e+06 247537 222053 330056 66128 208195 34984 1.22609e+06 288744 7255 918289 36209 826218 26014 15921 55908 5.88267e+06 3.5705e+06 393079 4519 1.50328e+06 380933 259960 197271 69449 25484 78557 61867 766799 556527 239679
internal_count=23396751 3022211 20374540 1817096 4916267 1205115 1435508 1173076 15458273 1609854 13848419 860240 7162838 1136867 528423 4056027 134465 1475389 794112 381588 1910587 743056 374333 166138 2145440 3355450 608444 1227852 3807388 32039 692452 6685581 247537 222053 330056 66128 208195 34984 1226093 288744 7255 918289 36209 826218 26014 15921 55908 5882670 3570501 393079 4519 1503284 380933 259960 197271 69449 25484 78557 61867 766799 556527 239679
is_linear=0
shrinkage=0.05


Tree=14
num_leaves=63
num_cat=0
split_feature=19 19 19 1 19 19 1 19 19 7 19 19 19 19 19 19 7 1 7 1 13 12 12 1 1 19 12 19 12 7 1 19 1 1 19 7 14 7 1 7 1 7 12 1 7 13 7 12 13 12 12 7 7 7 7 1 7 7 7 7 11 12
split_gain=6.17089e+08 8.40208e+07 7.11769e+07 2.1304e+07 1.49957e+07 1.28791e+07 7.32479e+06 6.38764e+06 4.07239e+06 3.68878e+06 2.71439e+06 1.96409e+06 1.91016e+06 1.76967e+06 1.49599e+06 1.32932e+06 1.04898e+06 913198 887578 841883 656175 619838 616714 593061 589446 580051 578972 569652 553640 544883 542643 528844 527992 708206 501206 480917 435461 419737 414062 413736 409702 375390 362911 328604 317883 310942 309406 294772 291118 282896 281670 278468 267328 266004 264777 263773 260913 250301 242226 241839 235173 231206
threshold=8.1050000000000022 2.7650000000000001 13.775 264.50000000000006 1.5250000000000001 4.8050000000000006 2.0000000000000004 20.195000000000004 10.505000000000001 352.50000000000006 1.0850000000000002 3.5950000000000002 16.225000000000005 2.1450000000000005 6.2550000000000008 20.195000000000004 352.50000000000006 264.50000000000006 352.50000000000006 2.0000000000000004 1.0000000180025095e-35 1.0000000180025095e-35 1.0000000180025095e-35 264.50000000000006 2.0000000000000004 0.69500000000000006 1.0000000180025095e-35 9.2750000000000004 1.0000000180025095e-35 352.50000000000006 264.50000000000006 20.195000000000004 228.50000000000003 166.50000000000003 12.225000000000003 352.50000000000006 1.0000000180025095e-35 352.50000000000006 264.50000000000006 352.50000000000006 86.500000000000014 116.50000000000001 1.0000000180025095e-35 264.50000000000006 352.50000000000006 1.0000000180025095e-35 248.50000000000003 1.0000000180025095e-35 1.0000000180025095e-35 1.0000000180025095e-35 1.0000000180025095e-35 352.50000000000006 248.50000000000003 352.50000000000006 352.50000000000006 137.50000000000003 248.50000000000003 352.50000000000006 352.50000000000006 352.50000000000006 1.0000000180025095e-35 1.0000000180025095e-35
decision_type=2 2 2 2 2 2 2 2 2 2 2 2 2 2 2 2 2 2 2 2 2 2 2 2 2 2 2 2 2 2 2 2 2 2 2 2 2 2 2 2 2 2 2 2 2 2 2 2 2 2 2 2 2 2 2 2 2 2 2 2 2 2
left_child=1 4 8 6 10 11 15 -5 18 12 24 21 36 22 30 39 19 28 27 -10 -17 43 57 34 -1 38 59 -2 51 49 35 -14 33 40 61 47 -8 42 -26 -4 -33 -9 -12 54 50 -32 -24 -7 -25 -16 -27 -13 -23 -43 60 -38 -28 -6 -30 -15 -3 -21
right_child=2 5 3 7 13 14 9 41 16 -11 37 17 31 26 29 20 -18 -19 -20 23 -22 52 46 48 25 44 56 -29 58 -31 45 32 -34 -35 -36 -37 55 -39 -40 -41 -42 53 -44 -45 -46 -47 -48 -49 -50 -51 -52 -53 -54 -55 -56 -57 -58 -59 -60 -61 -62 -63
leaf_value=2.3563701272229545 0.34377606481800393 -0.011585123566870241 1.3766491426857819 1.3000238249514353 -0.12971214648835946 0.13362187744525431 0.72343474832817622 2.3159252490509097 1.2533305226085967 1.3828086329508451 -0.1740951133048215 0.048736424310990969 0.91817601498017309 -0.079014678165005486 0.2295888536459316 1.7595170261010524 0.96053578905895876 1.0967213291030227 0.69251336879296699 0.48629841225593262 2.6454897404333497 0.016457833378145159 -0.10215943727680515 1.4929488533031712 -0.23661241107518718 -0.2167299944457827 -0.044293280857480716 0.42890973204969263 0.11147409518346214 0.51050371531069449 1.1647496649439855 1.1605099145392292 0.88550527632783238 1.3253846449470887 0.6296724005730916 0.37003953731753136 0.98537466321349543 -0.063899345414434719 1.6238908632827496 2.180282867526802 0.95143014755257305 2.7021469746252511 -0.14247394211562589 1.1214995508932704 -0.11695189524535976 0.16081433386060034 -0.053823501412678179 0.19726253931899793 0.78150550420514575 0.30160865579206936 -0.18720083609865912 0.21475045933476544 0.084439187981797267 3.6128385489061348 0.12311499611407009 0.65334626192029421 0.013376192677870347 -0.024376375392099709 0.30987272494400153 0.049350165043743691 -0.058537646022202655 0.56733828367866423
leaf_weight=223 385157 939412 43533 14486 2380363 624749 148933 7145 4360 42479 2263334 1055098 773159 1568606 459132 6097 17008 2178 24549 219371 3181 457936 1029668 2267 1847724 1917245 619334 401151 439911 20871 2112 33599 58260 21972 141277 26075 28813 113662 299 1663 77449 16786 1514567 629 107563 1215 487982 256720 3933 193955 1395297 25879 211357 843 30920 7550 287024 57765 15942 37571 372418 146994
leaf_count=223 385157 939412 43533 14486 2380363 624749 148933 7145 4360 42479 2263334 1055098 773159 1568606 459132 6097 17008 2178 24549 219371 3181 457936 1029668 2267 1847724 1917245 619334 401151 439911 20871 2112 33599 58260 21972 141277 26075 28813 113662 299 1663 77449 16786 1514567 629 107563 1215 487982 256720 3933 193955 1395297 25879 211357 843 30920 7550 287024 57765 15942 37571 372418 146994
internal_value=3.35259e-07 -0.0914209 0.721249 0.987271 -0.149082 0.0840161 0.951156 2.13408 0.467109 0.925249 -0.190239 0.0311286 0.908344 -0.0907976 0.20254 1.51814 0.574155 0.0736492 0.396452 0.561473 2.0633 -0.0013852 -0.111641 0.555602 -0.213632 -0.213741 -0.057982 0.387209 0.0721993 0.259015 0.160754 0.936593 1.01103 1.06601 0.549666 0.158417 0.761311 -0.15857 -0.236311 1.40622 1.01469 2.62177 -0.161418 -0.0209706 -0.201545 0.798136 -0.0866176 0.152157 1.04166 0.250977 -0.204292 0.0527109 0.0379258 2.74572 -0.0215058 0.916438 -0.0260306 -0.127216 0.118413 -0.076012 -0.0249146 0.518814
internal_weight=2.33968e+07 2.07647e+07 2.63202e+06 1.28595e+06 1.56282e+07 5.13651e+06 1.24669e+06 39260 1.34607e+06 1.19221e+06 9.15991e+06 3.55168e+06 1.14974e+06 6.46831e+06 1.58483e+06 54474 535210 1.53901e+06 810857 518202 9278 2.01267e+06 3.95578e+06 513842 5.26835e+06 5.26813e+06 2.51254e+06 786308 1.53683e+06 673958 910871 964439 191280 133020 507642 907544 185296 3.89156e+06 1.84802e+06 45196 111048 24774 3.7779e+06 1.34338e+06 3.4201e+06 3327 1.51765e+06 881469 6200 653087 3.31254e+06 1.08098e+06 669293 17629 1.34275e+06 36363 906358 2.43813e+06 455853 1.60618e+06 1.31183e+06 366365
internal_count=23396751 20764736 2632015 1285948 15628227 5136509 1246688 39260 1346067 1192214 9159914 3551680 1149735 6468313 1584829 54474 535210 1539008 810857 518202 9278 2012672 3955778 513842 5268351 5268128 2512535 786308 1536830 673958 910871 964439 191280 133020 507642 907544 185296 3891563 1848023 45196 111048 24774 3777901 1343379 3420105 3327 1517650 881469 6200 653087 3312542 1080977 669293 17629 1342750 36363 906358 2438128 455853 1606177 1311830 366365
is_linear=0
shrinkage=0.05


Tree=15
num_leaves=63
num_cat=0
